tree
version=v4
num_class=1
num_tree_per_iteration=1
label_index=0
max_feature_idx=83
objective=regression_l1
feature_names=Column_0 Column_1 Column_2 Column_3 Column_4 Column_5 Column_6 Column_7 Column_8 Column_9 Column_10 Column_11 Column_12 Column_13 Column_14 Column_15 Column_16 Column_17 Column_18 Column_19 Column_20 Column_21 Column_22 Column_23 Column_24 Column_25 Column_26 Column_27 Column_28 Column_29 Column_30 Column_31 Column_32 Column_33 Column_34 Column_35 Column_36 Column_37 Column_38 Column_39 Column_40 Column_41 Column_42 Column_43 Column_44 Column_45 Column_46 Column_47 Column_48 Column_49 Column_50 Column_51 Column_52 Column_53 Column_54 Column_55 Column_56 Column_57 Column_58 Column_59 Column_60 Column_61 Column_62 Column_63 Column_64 Column_65 Column_66 Column_67 Column_68 Column_69 Column_70 Column_71 Column_72 Column_73 Column_74 Column_75 Column_76 Column_77 Column_78 Column_79 Column_80 Column_81 Column_82 Column_83
feature_infos=[-0.20872774900279811:0.15007244876837111] [-0.21605520821045177:0.28586214034361435] [-0.30016099110754646:0.20709997930035207] [-0.33748708697822882:0.31732560546470734] [-0.32109966840833526:0.3654522873111159] [-0.50455649475856623:0.38078615117089076] [-0.52188076467992639:0.49853306254987051] [-0.57709176258842487:0.73754967018158912] [-0.99999999995555899:0.99999999996046085] [0.00060205649824927139:0.34395690814228325] [0:0.999999999999033] [-0.01559869212736535:0.24404885116927785] [-0.27969776706306759:0.041890020688459192] [102.92313123226165:4844.7500713062291] [0.0096308711869868644:264.1406565167855] [2263.5113825000358:397212.58574000001] [0.23089402318000651:571.01627416372298] [103.25846724629402:4804.4557424177719] [0.13019426992078725:229.19860536399324] [3002.6592308333329:260911.11265083333] [0.37934468040864289:327.62358588933938] [103.74970267593859:4792.6249614404633] [0.21780727890605525:318.40568264012609] [4554.4991179166673:232661.38563625002] [0.49940379348894187:251.10436807473502] [104.37784979080162:4773.1099715433511] [0.3759038948792604:404.83733189572149] [5291.1040208333334:177000.83764645833] [0.58294936319192414:192.08930980275071] [106.58012576839754:4699.837018212881] [1.1068232561407205:495.40247385410214] [7354.3576489285724:112520.61067886905] [0.70818484393613823:133.10492513850687] [-0.17193900596545342:0.13236265864606844] [-0.27896303172308157:0.1120155113557304] [-0.3679157584070315:0.18554877007777182] [-0.44514581163914957:0.30164758275024206] [-0.53398631882864911:0.44247327437845207] [0:100] [2.0633636866299696:99.889928453494676] [9.2455121047466378:92.958520652608598] [-208.13149669971108:129.19006764762889] [-179.83959511900562:114.15567182948612] [-64.467375745052919:62.474931161564825] [0.13268930557362552:13.067672117499241] [0.095116014866707246:21.006473647626059] [1460.7026674932417:135566.51961288301] [-1804774.1527000004:2220553.4595400002] [-4.5511732640797566:4.5066881293461289] [0.00087423333445212439:0.1837008003148666] [-0.42919608777515106:1.0919344032332958] [381151:1932711] [422740.28571428574:1657764] [-0.62807907563211107:3.3950299608839511] [98713:1356170] [106625.71428571429:557974.42857142852] [-0.39168148352198739:0.73110767485065242] [86368:603855] [103356.71428571429:532274.85714285716] [-0.7075376655991269:2.7857371968899844] [397865.30467085977:10016953.606058491] [793262.6207441868:6474106.1005553175] [-0.18104736725102633:0.23188726694076989] [26794646878:110059417811] [28711647948.57143:109731250837] [-0.29219103598473573:0.73183696255070618] [-0.34203436358194605:1.7691898859646327] [-0.69769311141008128:1.8048649606295872] [-1:1] [-1:1] [-0.97492791218182362:0.97492791218182362] [-0.90096886790241903:1] [-0.20872774900279811:0.15007244876837111] [0.00060205649824927139:0.34395690814228325] [-0.20872774900279811:0.15007244876837111] [0.00060205649824927139:0.34395690814228325] [-0.20872774900279811:0.15007244876837111] [0.00060205649824927139:0.34395690814228325] [-0.20872774900279811:0.15007244876837111] [0.00060205649824927139:0.34395690814228325] [-0.20872774900279811:0.15007244876837111] [0.00060205649824927139:0.34395690814228325] [-0.20872774900279811:0.15007244876837111] [0.00060205649824927139:0.34395690814228325]
tree_sizes=5416 5445 5255 5342 5461 5348 5248 5434 5146 5445 4420 5370 4700 4814 3809 5192 4634 4632 4430 5275 5429 4453 4451 5058 5454 4657 4798 4701 4823 4699 4237 4710 4807 5175 4419 5061 4338 5435 5197 4734 5452 4635 3976 4825 5003 3856 4048 4324 4418 4702 5473 5475 3965 4525 5170 4894 4728 4157 4230 4854 4721 4596 5150 4914 4248 4240 5481 4532 4537 4915 4691 4736 4920 4811 4995 5010 4794 4339 4612 5287 5160 4710 4616 5111 5252 5274 4688 3973 4512 5155 4636 5267 4503 5440 4715 4918 5088 5269 4230 4606 5339 4278 5288 4422 5087 4446 5245 5017 4255 4266 4619 5370 3988 4636 5011 5435 4907 4989 4837 4806 4190 4798 4922 4713 4899 4537 5332 4641 4513 5474 4806 5261 3965 4816 4524 4816 4812 4940 4446 3874 4334 5178 4350 5188 5061 4601 4154 4742 4694 4437 5080 4737 4523 4142 4715 4723 5170 5277 4692 4991 4364 4836 5378 4705 5078 5179 4963 5376 4634 5308 3987 5357 4729 4979 4873 4523 3721 3808 5072 4528 3623 4797 4518 3946 5074 4280 4138 4974 4354 4732 4689 3690 4543 4235 4131 4804 3298 3903 4616 4900 4900 4371 4413 2772 5110 4261 3880 3883 4153 4344 3242 4983 4992 5000 4643 2952 4639 4545 4823 3310 4244 4359 4820 4535 5161 5101 3980 4249 4734 3525 3713 4606 3874 4937 4658 4634 4789 4537 5260 4060 4338 4812 3946 5244 4798 4228 4087 3901 3146 4327 4441 4632 4599 5071 3799 3230 4354 4696 3967 4067 4513 3583 3985 4448 3501 3792 4150 4615 3710 3711 3585 3491 3587 3593 4616 3841 4328 3603 2851 4564 5248 4450 4417 3150 4905 4136 4253 3980 4056 4615 4405 4534 3234 3144 3421 3064 4371 4433 3422 3217 3019 4224 3382 4253 4133 4419 2591 3634 2948 3417 2597 3415 4425 3712 3056 4626 4172 4275 3885 2761 3424 3410 2961 3509 4983 3693 2758 1938 4163 2686 3895 2496 2685 3892 2495 4327 3129 2128 2560 2874 2220 4142 1371 3050 2622 4136 2228 3328 1374 2039 2685 3410 2858 2940 3986 1846 2121 3033 2761 2757 2115 3022 4530 4017 4714 3224 4620 3041 1377 3769 5245 2853 2852 2953 3033 1940 3201 3586 3348 3295 3546 3802 1825 3316 2033 1741 2130 3160 2001 1639 2127 4173 4137 1920 1845 2385 2848 3572 2488 1830 2586 2488 2225 1474 2852 3691 3603 3388 2409 3623 3568 3235 3507 3327 3367 1559 3289 4079 4626 3607 3315 1741 3968 2759 3139 3736 1937 2020 3250 1645 3764 2132 1570 1938 3039 4578 4149 2379 2595 3031 3609 3145 3962 2395 2607 2861 2284 2488 3228 3404 2855 3691 3053 2471 2756 4134 2397 2328 2757 4507 1912 2120 3867 3220 3045 3235 3707 2401 4052 3315 4428 3002 1469 3939 2281 2935 4991 1927 2492 3103 1928 3037 2501 2590 4611 3045 4179 4077 3486 2942 1829 3208 1734 2583 5189 3140 4059 3697 3417 4347 3967 3796 1822 4246 3655 4063 3325 4985 3944 4437 3778 1663 3407 2741 4616 4008 1831 1762 1664 3433 1936 3117 3983 3791 2396 1894 1360 1372 1470 1851 4681 1458 4029 2115 3236 2027 2864 3238 2390 3412 1542 3422 3055 3810 2220 4119 2360 2663 2778 4346 2847 3139 2028 3868 3331 2121 2286 3167 2568 2229 3876 1274 1287 2658 2120 2403 2216 1828 3012 1378 2094 1858 2872 3225 1446 1175 3616 1747 1279 2015 1451 1632 3299 3399 4153 2014 2691 3405 1837 1597 2293 3130 4248 1736 1840 3396 2203 1817 2303 2678 3510 1999 1372 4445 3964 4149 1634 3122 2775 3706 3701 1728 3322 1542 3889 1804 3971 4342 2933 1357 3851 3796 5341 1807 3608 2690 2926 3058 3505 3882 3884 3342 2194 1437 3036 2113 1918 4069 3527 3030 1451 4707 3783 1542 2291 1638 1536 3241 3141 4049 4160 3497 3796 2214 2933 3119 3314 4026 2944 2570 3780 4313 4343 1941 1656 5083 1906 1844 3131 2580 4317 4233 1757 3323 2243 1095 1101 3535 3466 1728 2119 3696 4073 3057 1532 2691 2292 4078 3043 1552 1465 2218 2869 1445 2764 2844 4622 3399 3972 1464 3153 2703 4147 2598 2107 3956 3987 3323 2957 4207 4455 1831 1359 1950 3783 3472 3801 3056 3504 3593 2671 3322 4532 3133 1723 3411 1756 4064 3050 3072 1567 2040 3045 3903 3880 3340 1825 3798 1831 3157 3034 2773 4140 3635 3309 2976 1752 2312 3428 1728 2758 3880 3338 3402 1575 3969 2551 3766 3498 1848 1446 4540 4051 3765 3616 1850 3708 3332 1945 2574 2377 2106 1543 3411 1543

Tree=0
num_leaves=57
num_cat=0
split_feature=5 1 59 59 33 35 69 59 6 3 52 33 31 5 59 53 61 61 63 68 37 41 3 63 71 7 23 68 63 67 3 50 24 42 25 31 31 27 66 45 31 5 23 78 35 45 42 74 15 24 7 53 49 78 82 33
split_gain=191.462 103.195 86.4765 77.2614 53.8765 48.2577 35.2515 30.1399 28.3208 27.6163 29.1029 29.9728 25.1735 25.02 28.9573 24.5132 23.9582 27.5008 27.0155 23.6463 22.5703 21.9186 21.316 19.9342 19.9033 19.6827 19.3823 19.1391 23.4451 21.5254 18.8485 18.5698 18.2308 17.2085 18.4213 17.0026 16.5916 16.1003 15.8777 15.8114 15.3788 14.7325 14.732 12.2979 13.6824 12.2291 11.8013 11.5225 10.7648 10.7178 9.69772 9.58202 9.57557 7.8429 7.47453 7.24172
threshold=-0.0018884940067152576 -0.0051894665591655778 0.059317410520800536 -0.10521499306635228 -0.0019937351921336939 0.010679529327774164 0.86602540378443849 0.69556600141401181 0.044229782627340126 -0.010301194601879391 1063887.4255952383 0.0020241986856037735 41911.323093571431 -0.064326005720740417 -0.14523306840818914 0.16925050686257462 2243030.2728666435 1427679.2436291531 95146869555.666672 0.37940952255126076 -0.09895643008360204 1.8616753204239134 0.0023127850796499376 99070624027.375015 1.0000000180025095e-35 -0.022700123506627364 36294.186413958341 -1.0000000180025095e-35 83464216178.875015 0.046509911210555484 0.01306886043243405 0.004955502824715464 1.9564293126513581 25.473509452573754 3856.50773144401 26942.019955000007 17546.312018065481 29917.54796822917 -0.01506644790426037 0.50691648810048495 53616.965236130964 -0.013762537216234326 91573.229365208346 -0.0035271273994153525 1.0000000180025095e-35 1.1238732689725841 3.7590360154731295 -0.0026605267223481217 23944.221366249996 22.335153790662694 0.019799410631443529 0.012525325411044343 0.011466684438118074 0.0058855538567181851 -0.00059154097371644221 -0.0047938730711460367
decision_type=2 2 2 2 2 2 2 2 2 2 2 2 2 2 2 2 2 2 2 2 2 2 2 2 2 2 2 2 2 2 2 2 2 2 2 2 2 2 2 2 2 2 2 2 2 2 2 2 2 2 2 2 2 2 2 2
left_child=2 8 4 9 13 33 15 16 19 39 26 -12 21 53 36 -7 17 24 30 43 -19 35 -8 27 -4 -20 -11 28 -9 -29 -18 48 -16 34 -5 -6 -15 41 46 -3 51 -25 -42 44 -2 -40 -21 -45 52 -23 -33 -14 -10 -1 -41 -50
right_child=1 3 7 5 12 6 22 23 31 10 11 -13 40 14 32 -17 18 20 25 38 -22 49 -24 37 -26 -27 -28 29 -30 -31 -32 50 -34 -35 -36 -37 -38 -39 45 54 42 -43 -44 47 -46 -47 -48 -49 55 -51 -52 -53 -54 -55 -56 -57
leaf_value=0.00042915402430047424 0.00036339431449443186 0.00033150200065965626 0.00035946125059515269 0.00034843055468422238 0.00036311769217720958 0.00035920417735881417 0.00037000748178697777 0.00036957231405976266 0.00035851628161556704 0.00034111333335659513 0.00035322874397456102 0.00033327152679520528 0.00040790714605390085 0.00036516163450006075 0.00037734340096982986 0.00038447222797610762 0.0003815082664064682 0.00040179559986745815 0.00029710138193996151 0.00034805968691139805 0.00034507347769911637 0.00035184651746466265 0.00033472977514402479 0.00036113937141376841 0.00037687991962479108 0.00038537595441094462 0.00030640611991444351 0.00032652043404189212 0.00032593172637618826 0.00025332034996155867 0.00034950589879708565 0.00036946885088879353 0.00036223503203375719 0.00037775634509160393 0.00031695669764972382 0.00035301190093639333 0.00038610393494383437 0.0004037363308586414 0.00033071479158078965 0.00039536772587677577 0.0003576444064571081 0.00032049948120013505 0.00044470225637742255 0.00038683471525935767 0.00039033088339922913 0.0003638986079198446 0.00039399719081898766 0.00035523197813934178 0.00037293735816419643 0.00032569009472614203 0.00040459743955618851 0.00036747377112401181 0.00038864567006257147 0.00038790855803950443 0.00036260945488659374 0.00034414867615190347
leaf_weight=385 152 123 797 4112 3226 4518 170 416 97 2555 1554 1751 323 376 247 495 1190 150 292 240 2329 100 816 423 273 96 323 381 185 212 181 171 1206 160 156 1412 1501 114 376 118 399 147 157 249 166 118 107 867 277 101 564 113 118 114 177 190
leaf_count=385 152 123 797 4112 3226 4518 170 416 97 2555 1554 1751 323 376 247 495 1190 150 292 240 2329 100 816 423 273 96 323 381 185 212 181 171 1206 160 156 1412 1501 114 376 118 399 147 157 249 166 118 107 867 277 101 564 113 118 114 177 190
internal_value=0.00035628 -0.000131477 0.000956202 -0.000380514 0.00142443 2.57907e-05 0.000468433 0.000326971 0.00101667 -0.00102205 -0.00114954 -0.000663418 0.000965443 0.00212294 0.00188481 0.000726276 0.00061864 0.000260643 0.00134175 0.000492146 -0.000177952 0.00073958 -0.000840742 -0.000498168 0.00127526 -0.000420508 -0.00170715 -0.00108909 -0.000132694 -0.00205531 0.00184164 0.00185759 0.00107999 -0.000574222 -0.000665911 0.000846041 0.00250688 0.00053122 -0.000515628 0.000859919 0.00206536 1.34757e-05 0.00122539 0.00108429 0.00239935 -0.00138849 0.000722847 0.000707895 0.0009538 -0.0017074 0.00269372 0.00313211 0.00235612 0.0037077 0.00181415 0.000310923
internal_weight=37566 20720 16846 17028 9660 10427 5999 7186 3692 6601 6183 3305 5831 3829 3330 5013 5308 3549 1759 2275 2479 4839 986 1878 1070 388 2878 1194 601 593 1371 1417 1453 4428 4268 4638 1877 684 841 418 992 570 556 1434 318 494 347 1116 682 201 735 436 215 499 295 467
internal_count=37566 20720 16846 17028 9660 10427 5999 7186 3692 6601 6183 3305 5831 3829 3330 5013 5308 3549 1759 2275 2479 4839 986 1878 1070 388 2878 1194 601 593 1371 1417 1453 4428 4268 4638 1877 684 841 418 992 570 556 1434 318 494 347 1116 682 201 735 436 215 499 295 467
is_linear=0
shrinkage=1


Tree=1
num_leaves=57
num_cat=0
split_feature=5 1 59 59 33 35 34 69 51 59 6 5 40 31 59 38 59 5 41 38 50 58 30 69 22 71 50 31 7 42 13 50 31 25 23 72 65 19 46 31 41 30 79 38 25 15 7 46 7 57 65 72 58 16 50 19
split_gain=191.125 101.805 85.4829 76.3385 53.8765 46.5389 39.3856 34.9798 31.7448 30.6036 27.8786 27.0082 26.5947 25.1735 24.6356 23.5559 22.4397 22.262 20.5913 19.6816 19.2525 33.4199 21.4829 24.7006 18.6884 18.6858 18.131 17.7796 17.1829 17.0154 17.6331 15.9482 15.3788 15.364 14.732 14.673 13.6587 12.4279 21.0693 14.6675 13.2554 11.6757 11.2833 15.0843 11.2736 10.7648 9.64461 9.57557 9.44591 8.98986 7.98347 7.2412 7.23646 6.81085 6.4843 5.60511
threshold=-0.0018884940067152576 -0.0051894665591655778 0.059317410520800536 -0.10521499306635228 -0.0019937351921336939 0.010679529327774164 -0.0014382958898361273 0.86602540378443849 1202459.3125000002 0.69556600141401181 0.044229782627340126 0.074270859829426508 28.41789031898281 41911.323093571431 0.55378695365118702 52.916786055396926 -0.14523306840818914 0.010652548453558565 1.8616753204239134 63.060796620904966 0.0011503808707712395 224468.91964285719 34.431713290368961 0.78656609248549281 1.7361834828344793 -0.56174490092936669 0.004955502824715464 18274.616411904764 0.10509481738500405 25.473509452573754 3943.2792165978258 -0.062541604123045644 53616.965236130964 2017.5641857618718 91573.229365208346 -0.011430982960504042 0.049527388760640008 32279.749520000008 19311.093275052652 36468.083942648816 -4.0300886765526931 91.516538314028736 0.0076205878716731242 49.821339795860268 1542.2728508551174 23944.221366249996 -0.026869796224729566 11979.389263548101 0.019799410631443529 211483.06250000003 -0.0025203749192509446 -0.0070778651382673577 269242.24404761911 3.7081266690790788 0.0011503808707712395 22147.900141666672
decision_type=2 2 2 2 2 2 2 2 2 2 2 2 2 2 2 2 2 2 2 2 2 2 2 2 2 2 2 2 2 2 2 2 2 2 2 2 2 2 2 2 2 2 2 2 2 2 2 2 2 2 2 2 2 2 2 2
left_child=2 10 4 6 12 29 24 14 17 20 31 -10 54 18 -7 -9 27 -8 19 -6 22 25 23 -4 46 -22 45 -14 -24 30 -5 51 52 -23 -34 -18 -26 38 40 44 -11 -20 55 -44 -39 47 -3 -12 -28 -47 -41 -2 -15 -50 -1 -33
right_child=1 3 9 5 13 7 8 15 11 37 26 -13 16 32 -16 -17 35 -19 41 -21 21 33 28 -25 36 -27 48 -29 -30 -31 -32 42 34 -35 -36 -37 -38 39 -40 50 -42 -43 43 -45 -46 49 -48 -49 53 -51 -52 -53 -54 -55 -56 -57
leaf_value=5.381876169212744e-05 -2.3713134284881593e-05 -1.821902643288265e-05 1.085884350379491e-05 -7.7895763028554124e-06 7.5446470894354569e-06 8.167839761095966e-07 -8.833503088651816e-06 1.7119880384228853e-05 -2.8230696571779481e-06 -5.629204495053856e-07 2.2197293224629759e-06 -8.5597421566304909e-05 9.7031199135177955e-06 3.0426866494833601e-05 1.715852927387049e-05 -2.1179843012590827e-05 -1.2070365934529157e-05 -2.6331041127682547e-05 -3.0260386421165527e-06 -2.5235393005834332e-06 -1.7056894711733369e-05 3.0728157244625918e-05 -2.4609497508788277e-05 -1.4565412755553286e-05 -3.0399756827066524e-07 3.8453302044384998e-06 1.3089309074567077e-05 3.1041428624772648e-05 3.3162044761132069e-05 2.1314007493298065e-05 -4.1829988632092406e-05 3.1235710125193517e-07 1.3544605136261313e-06 1.3407072781696128e-05 8.7752657972988413e-05 1.7009043688468427e-05 1.9611471301373205e-05 3.5296523281965253e-05 -7.377306181996687e-05 -2.8387285101167109e-06 -2.8788951938849253e-05 -2.7700808220237785e-05 2.0382689794646386e-05 -3.9466382644908407e-06 -1.0202341945417341e-05 -1.7387164963415234e-05 -1.1703144530059998e-05 3.1743341947798755e-05 2.6541010037804147e-05 1.6288166364229779e-05 -5.6010997671919756e-05 -6.9236790074518845e-06 8.90976435508291e-05 5.2158580085340932e-05 2.2593150963098561e-05 -1.8312791559710106e-05
leaf_weight=214 115 103 1019 4134 3270 3833 1518 161 1011 401 97 126 441 331 1180 825 291 2705 100 1368 441 533 1013 235 820 1244 171 1489 111 160 134 364 399 712 157 1258 146 222 130 240 430 101 887 505 225 143 172 118 107 324 230 210 105 457 136 194
leaf_count=214 115 103 1019 4134 3270 3833 1518 161 1011 401 97 126 441 331 1180 825 291 2705 100 1368 441 533 1013 235 820 1244 171 1489 111 160 134 364 399 712 157 1258 146 222 130 240 430 101 887 505 225 143 172 118 107 324 230 210 105 457 136 194
internal_value=3.18621e-06 -0.0004841 0.000602621 -0.000731453 0.00106815 -0.000327582 -0.00136915 0.000107101 -0.0016508 -2.29825e-05 0.000656291 -0.000525024 0.00176666 0.000609164 0.000363951 -0.00119702 0.00156543 -0.0019535 0.000383301 0.000486494 0.000270925 0.00068215 -0.000235123 0.000445839 -0.000151377 -1.25744e-05 0.00149061 0.00211117 -0.000996162 -0.000916812 -0.00100799 0.000135867 0.00170908 0.00162349 0.000869115 0.000884283 0.000343465 -0.000854447 -0.00145676 -0.000221373 -0.00101002 -0.00198836 0.000395514 0.000760858 0.000759022 0.000597521 -0.00189423 0.00199984 0.00231683 -4.53565e-05 -0.001157 -0.00141658 0.00277583 0.00279072 0.00376043 -0.000513066
internal_weight=37566 20720 16846 17028 9660 10427 6601 5999 5360 7186 3692 1137 3829 5831 5013 986 3479 4223 4839 4638 5308 2930 2378 1254 1241 1685 1417 1930 1124 4428 4268 2275 992 1245 556 1549 966 1878 961 917 831 201 1950 1392 447 682 275 215 735 467 470 325 436 564 350 558
internal_count=37566 20720 16846 17028 9660 10427 6601 5999 5360 7186 3692 1137 3829 5831 5013 986 3479 4223 4839 4638 5308 2930 2378 1254 1241 1685 1417 1930 1124 4428 4268 2275 992 1245 556 1549 966 1878 961 917 831 201 1950 1392 447 682 275 215 735 467 470 325 436 564 350 558
is_linear=0
shrinkage=0.00757717


Tree=2
num_leaves=55
num_cat=0
split_feature=40 56 59 33 23 38 33 49 59 69 59 34 66 38 69 55 24 49 64 55 69 83 48 48 6 37 51 2 40 23 64 56 56 29 28 34 16 66 59 82 44 38 69 45 59 30 59 69 81 30 79 23 37 55
split_gain=182.724 120.314 88.9332 57.4308 54.5348 53.5328 40.4553 48.8702 28.0805 27.6945 37.7887 30.2098 27.806 26.5181 24.9288 22.2825 26.4793 21.0051 20.3233 18.9985 18.9367 17.9547 17.7418 19.1743 17.3801 17.1349 16.9952 15.4608 23.6771 19.9029 32.2466 15.0713 15.0097 13.9933 13.9704 18.0645 15.8352 13.8419 13.7787 13.0801 12.741 12.41 12.3575 11.6519 11.5088 10.1572 11.5609 10.0117 9.86809 9.65585 8.90313 8.55375 7.59012 7.4099
threshold=48.753185336007611 0.0050185737377348447 0.059317410520800536 -0.0024675095041485347 14991.231163333334 17.069918699186882 0.00094748391502674789 0.024407363887013592 0.69556600141401181 0.49999999999999978 0.21609982732487812 -0.00089841680332131124 -0.087492832733397238 60.212874770025813 -0.5 156348.33630952385 1.5425829980894974 0.010501996096287167 108627732103.85419 383130.9107142858 -0.9159756150367534 0.021831141389581091 2.5010875876079397 1.0994696827264199 -0.013624837433399315 0.048968201316551115 1211080.1666666667 0.0034856714061133336 37.489805520854951 15502.011787500001 87940927723.383942 -0.018626736629519299 0.022796677992268369 1691.8832371553497 15.059890088507297 -0.01751984515002963 3.5218686965107264 -0.0083595140365422243 0.47789458266820478 -0.0021667043267480919 0.45947331919785067 36.144962120048014 -0.70710678118654757 0.46060862147751419 0.17240417297568059 10.916164582153792 -0.1853326365807296 -0.37940952255126015 0.0055980406821234873 106.39098950342584 0.00645166008917106 36294.186413958341 -0.04868829098974186 377810.54166666674
decision_type=2 2 2 2 2 2 2 2 2 2 2 2 2 2 2 2 2 2 2 2 2 2 2 2 2 2 2 2 2 2 2 2 2 2 2 2 2 2 2 2 2 2 2 2 2 2 2 2 2 2 2 2 2 2
left_child=2 3 5 20 22 45 7 17 27 10 40 31 -13 14 25 -8 -17 -6 -16 34 41 39 23 32 26 -7 -21 29 33 38 -31 -11 -3 -29 36 -36 -10 43 -4 -15 -5 -2 -9 -22 -25 47 49 -1 -30 -47 -12 -39 -48 -23
right_child=1 4 8 9 6 13 15 42 19 11 50 12 -14 21 18 16 -18 -19 -20 24 37 53 -24 44 -26 -27 -28 28 48 30 -32 -33 -34 -35 35 -37 -38 51 -40 -41 -42 -43 -44 -45 -46 46 52 -49 -50 -51 -52 -53 -54 -55
leaf_value=1.313017932382299e-05 5.125611948233349e-05 2.4105075542944233e-06 -7.4620173459166959e-06 -5.149873581766658e-07 -3.0418497715151981e-06 1.9364798128669721e-06 -2.9095312657046702e-05 0.00010465409848513201 -2.7258793798101736e-05 -9.3803542461039575e-06 -5.001349982986298e-06 -4.1274602608699287e-05 -2.0439641720514508e-05 -1.0503049038634313e-05 1.7469650207097363e-05 5.6071309402432669e-05 -1.4481933878745802e-06 1.2933215521119909e-05 -5.9057260578654314e-06 3.4782499278900667e-05 -1.4394284315457951e-05 9.1694495538366783e-06 1.3187715925058229e-05 -2.2768785050463286e-05 -2.9306737700263252e-05 3.7151997585168176e-05 -2.675086253249779e-05 -3.1560506140114327e-05 -1.3881776340733834e-05 2.2735053833244657e-05 1.4419382098147749e-06 1.625372041621375e-05 -8.3491338485063997e-06 -9.8879501459745435e-06 -1.4175799413142214e-05 -7.6810672142473357e-05 4.4570895256747973e-06 -4.713906880565349e-06 1.3182234270444617e-05 3.7444202952086049e-06 -1.4521060893104673e-05 6.5025412739636949e-06 4.4655144682098637e-05 1.1160921895118316e-05 -1.0053867388151325e-05 2.565741324045132e-05 3.5951478766392601e-05 4.2451358999060362e-05 8.064243309993729e-06 6.5445422570855729e-05 1.6055263435173423e-05 -3.1585740396942347e-05 1.2060303198702585e-05 5.507589088006038e-05
leaf_weight=140 127 396 1108 464 1107 1705 103 151 411 348 160 311 2011 662 3822 109 4156 1980 232 195 146 306 113 333 131 249 155 278 118 1114 1526 105 900 163 237 281 460 727 188 1141 4583 157 593 709 320 237 189 190 753 125 442 439 316 144
leaf_count=140 127 396 1108 464 1107 1705 103 151 411 348 160 311 2011 662 3822 109 4156 1980 232 195 146 306 113 333 131 249 155 278 118 1114 1526 105 900 163 237 281 460 727 188 1141 4583 157 593 709 320 237 189 190 753 125 442 439 316 144
internal_value=3.62379e-07 -0.000469209 0.000595067 -0.00103023 0.00011726 0.00107655 0.000394418 0.000962765 -4.44916e-05 -0.00132022 -0.00101508 -0.0019407 -0.00228992 0.00085923 0.00112216 -0.000103725 -1.91803e-05 0.00054192 0.00146116 -0.000841896 2.89144e-05 0.00015737 -0.000983971 -0.00115375 0.000453447 0.000417969 0.00133709 0.000239372 -0.000472328 0.000477008 0.000854655 -0.000147074 -0.000618455 -0.00190284 -0.00129157 -0.00227809 -0.000702724 -0.000227918 -0.000291096 -0.000179835 -0.00122923 0.0018609 0.00270626 0.000503227 -0.00221327 0.00257466 0.00213892 0.00371283 0.000250457 0.0031756 0.00077756 -0.000765365 0.00139181 0.00151135
internal_weight=37566 20990 16576 10729 10261 9458 8199 3831 7118 8424 5649 2775 2322 8261 6008 4368 4265 3087 4054 1870 2305 2253 2062 1949 481 1954 350 5248 1312 3936 2640 453 1296 441 1389 518 871 2021 1296 1803 5047 284 744 855 653 1197 867 330 871 362 602 1166 505 450
internal_count=37566 20990 16576 10729 10261 9458 8199 3831 7118 8424 5649 2775 2322 8261 6008 4368 4265 3087 4054 1870 2305 2253 2062 1949 481 1954 350 5248 1312 3936 2640 453 1296 441 1389 518 871 2021 1296 1803 5047 284 744 855 653 1197 867 330 871 362 602 1166 505 450
is_linear=0
shrinkage=0.00757717


Tree=3
num_leaves=56
num_cat=0
split_feature=34 59 69 46 38 59 59 47 57 50 60 23 51 48 61 63 59 56 51 61 62 63 23 15 56 42 66 46 48 46 69 66 61 56 50 42 61 55 81 69 59 61 46 46 20 34 21 7 59 6 70 16 66 60 62
split_gain=174.672 70.1269 64.262 56.8939 55.6448 42.1756 32.4258 32.2085 26.9137 25.293 24.2881 26.5522 23.9908 28.1282 22.2755 23.2808 23.5069 21.995 29.6735 24.9156 21.9933 21.5516 21.4497 23.4218 20.4696 18.2208 17.8571 17.6022 17.1664 16.5233 16.1387 19.457 21.0686 15.7735 15.3785 14.641 14.2773 13.6003 13.1028 12.79 12.3815 16.9058 12.1004 12.0835 12.0695 11.8484 11.4295 12.5847 11.3931 17.9814 11.0134 10.8609 10.8216 8.23514 6.66806
threshold=-0.0031532228257238888 0.009715277147303138 0.49999999999999978 14465.010748560317 58.453536817877229 -0.095860585466018763 0.71387518120724203 -108765.76754999998 110175.31250000001 -0.029437347080410067 4022790.6317728213 91573.229365208346 907103.37500000012 0.8896628043650926 2380853.8487705742 96405760137.145844 0.069990314967130277 -0.0048314464691122652 1125514.0208333337 2079190.1710801302 -0.020443639861164927 99380030970.083359 17917.180821250004 22057.898187499999 -0.078335655359449127 12.897969421031432 -0.09085478872202328 10051.835793997347 -1.1651809446835297 25415.282234288727 -0.37940952255126015 -0.009024235919415478 3847234.7049348014 -0.018626736629519299 0.0064245037686688775 -2.5430686028989835 1319910.5208117317 378964.43750000006 0.012720286135922838 -0.5 -0.057775341051040312 1812029.3137008084 14685.516977644378 11526.271483258182 38.434523863693066 -0.0001938084202462442 3136.5687082027403 0.0046497620288731287 1.9202245083691529 -0.12949564347056683 -0.21694186955877909 3.7707741463184274 -0.019126571933720801 5093108.4029086018 -0.010008938787770981
decision_type=2 2 2 2 2 2 2 2 2 2 2 2 2 2 2 2 2 2 2 2 2 2 2 2 2 2 2 2 2 2 2 2 2 2 2 2 2 2 2 2 2 2 2 2 2 2 2 2 2 2 2 2 2 2 2
left_child=1 7 3 8 26 12 14 10 39 35 24 53 34 -14 25 16 -16 19 -19 -10 51 48 -7 -24 54 29 40 45 -26 -3 38 43 -33 -29 -5 37 -22 -6 50 -2 -4 -42 -27 -32 -40 -28 47 -23 49 -8 -9 -11 -37 -12 -1
right_child=2 6 4 5 9 22 21 30 17 20 11 -13 13 -15 15 -17 -18 18 -20 -21 36 46 23 -25 28 42 27 33 -30 -31 31 32 -34 -35 -36 52 -38 -39 44 -41 41 -43 -44 -45 -46 -47 -48 -49 -50 -51 -52 -53 -54 -55 -56
leaf_value=8.7305123946318763e-05 2.5115836046021193e-05 2.2867942745486567e-06 -3.062485819025694e-05 -3.4512163980752572e-05 -2.2327221756278984e-05 3.3834504129858825e-05 9.3809837896428384e-05 6.8227172183202076e-06 -1.1344445105127435e-05 -2.2312068597080229e-06 1.8172324231882015e-06 0.00016716421596151823 8.1241403560357407e-06 -1.5696352876513021e-05 -3.0238044762341761e-06 -5.7756035609328089e-05 3.6602410047173102e-05 -5.910881435970129e-06 8.4907286765677155e-06 -1.935938696543941e-06 -1.4793644359473348e-05 5.0631592347318164e-06 -5.6804798199995631e-06 1.6574392216923128e-05 3.2541041767929616e-05 6.897655102462181e-06 1.1049514672398823e-06 -4.2179937815139731e-06 9.7061255658788022e-06 -1.8460876592991834e-05 2.4169548378789455e-05 1.1174881429823471e-05 -3.2976646083740162e-05 9.3979031650556846e-06 3.1835611904575671e-06 -3.1992908136685366e-05 -1.305967194922452e-05 1.2113166261387029e-05 3.1715186578869336e-05 4.2422835793677392e-06 8.5674659009072579e-06 -2.0500878300081719e-05 4.529983395924506e-05 1.1516167068944675e-05 -1.7147873013732005e-05 -1.3865389216495485e-05 -5.378657207611842e-05 3.4749679192358851e-05 -9.2878883561544934e-05 -2.4991917931528902e-05 -1.0550765087774563e-05 5.8614625549976549e-05 -2.0029613306825862e-05 -0.00010002123540116596 4.1340192767000713e-05
leaf_weight=98 101 2694 171 374 182 179 108 762 2710 128 119 96 1263 916 366 163 1074 2793 1593 1571 332 251 821 3556 1053 153 506 777 492 467 593 1342 141 1123 158 496 2928 104 319 114 117 106 123 557 121 597 111 98 145 815 593 96 657 106 137
leaf_count=98 101 2694 171 374 182 179 108 762 2710 128 119 96 1263 916 366 163 1074 2793 1593 1571 332 251 821 3556 1053 153 506 777 492 467 593 1342 141 1123 158 496 2928 104 319 114 117 106 123 557 121 597 111 98 145 815 593 96 657 106 137
internal_value=1.16919e-06 0.000707429 -0.000376795 -9.7967e-05 -0.000917797 0.000399125 0.00015435 0.00126356 -0.000504847 -0.00143257 0.00203673 0.000113154 -0.000348778 2.76984e-06 0.000447692 0.00118534 0.00149311 -0.000570698 -0.000193129 -0.000957141 -0.00108257 -0.000812144 0.00084449 0.000738809 0.0023827 0.000103161 -0.000171289 2.72402e-05 0.00206346 -5.94358e-05 0.000896279 0.00127417 0.00069885 0.000469723 -0.00179104 -0.00227862 -0.00124062 -0.000735929 0.000341027 0.00214069 -0.00168761 -0.000502323 0.00196967 0.0020145 0.00147683 -0.00073352 0.000556465 0.00123243 -0.00140306 -0.00108993 -2.68188e-05 0.00120982 -0.00265975 -0.00130539 0.00447153
internal_weight=37566 13097 24469 16149 8320 7267 6568 6529 8882 4923 2101 321 2711 2179 5040 1603 1440 8667 4386 4281 3484 1528 4556 4377 1780 3437 3397 3003 1545 3161 4428 2633 1483 1900 532 1439 3260 286 1795 215 394 223 276 1150 440 1103 460 349 1068 923 1355 224 1153 225 235
internal_count=37566 13097 24469 16149 8320 7267 6568 6529 8882 4923 2101 321 2711 2179 5040 1603 1440 8667 4386 4281 3484 1528 4556 4377 1780 3437 3397 3003 1545 3161 4428 2633 1483 1900 532 1439 3260 286 1795 215 394 223 276 1150 440 1103 460 349 1068 923 1355 224 1153 225 235
is_linear=0
shrinkage=0.00757717


Tree=4
num_leaves=57
num_cat=0
split_feature=5 33 59 59 33 35 49 51 50 59 59 40 31 61 61 63 49 24 51 59 3 53 63 2 52 49 31 25 20 59 47 15 5 53 31 51 3 53 7 3 83 24 47 83 50 59 69 29 31 34 31 35 62 34 53 50
split_gain=185.568 89.3308 81.9942 74.478 52.755 37.4257 35.9307 29.8113 28.8242 28.4227 27.4018 27.3434 23.8083 23.0247 35.7254 22.9637 22.5664 21.9218 26.6494 21.0916 19.5947 19.5709 18.7059 17.9819 23.4072 17.6868 17.5117 17.0698 16.8912 16.6876 16.6343 17.7505 15.9554 18.258 15.7042 15.0576 14.973 20.4661 16.3221 14.825 14.6278 14.3982 13.6633 13.2622 13.2342 13.1838 13.0176 11.9769 18.071 14.1632 11.478 11.2243 10.8341 9.87981 9.23378 6.4843
threshold=-0.0018884940067152576 -0.0023493834493212846 0.059317410520800536 0.18066767747236959 -0.0019937351921336939 0.01117298463334482 0.021838499969483789 1125514.0208333337 -0.039234359790800803 0.69556600141401181 -0.14780228524231562 28.41789031898281 41911.323093571431 2004900.8968459989 1427679.2436291531 39614637977.875008 0.0073363698801094781 31.315307802905643 1122055.4375000002 -0.14523306840818914 -0.002172508214717594 -0.056465119984948457 99070624027.375015 0.0069461840018453245 1030826.8273809525 0.022034905126695929 17546.312018065481 137.47696414840718 21.945612295766619 0.55378695365118702 40202.3223499999 7981.9407249999731 -0.01520407940277174 -0.017038218878032359 53616.965236130964 888988.45833333337 -0.0070228656444403228 -0.067740074680413195 -0.10716848531553701 -0.0033708644047091281 0.009627642745416545 1.9564293126513581 88506.549349999768 0.04202425040604104 -0.011732860791055009 -0.43994860792207913 0.86602540378443849 177.55464952024678 10914.299619851192 -0.019275780372546954 24404.52197788691 0.0019962583140996641 0.0037223081459969447 0.0141293143501261 0.012525325411044343 0.0011503808707712395
decision_type=2 2 2 2 2 2 2 2 2 2 2 2 2 2 2 2 2 2 2 2 2 2 2 2 2 2 2 2 2 2 2 2 2 2 2 2 2 2 2 2 2 2 2 2 2 2 2 2 2 2 2 2 2 2 2 2
left_child=2 6 4 8 11 7 36 29 30 13 39 55 23 14 25 44 -16 18 -7 26 -17 40 47 24 -6 -4 -13 -23 -9 -5 35 -32 33 -24 54 -3 37 50 -38 -8 -15 -21 -19 -36 -10 -25 -40 48 -11 -49 -2 -12 -39 -53 -14 -1
right_child=1 3 9 5 12 17 10 28 15 22 51 19 34 21 16 20 -18 42 -20 41 -22 27 32 45 -26 -27 -28 -29 -30 -31 31 -33 -34 -35 43 -37 38 52 46 -41 -42 -43 -44 -45 -46 -47 -48 49 -50 -51 -52 53 -54 -55 -56 -57
leaf_value=5.3554745363481943e-05 -2.2378690460081709e-05 -1.8047198146712642e-05 9.7055485408721686e-06 -1.5156092946773179e-05 1.1882650350227575e-05 3.2729210071047095e-06 1.9998158386594337e-05 2.1843037717774332e-05 -7.5229913370588527e-06 -2.5464221874080224e-05 4.153407744737864e-06 7.2948230452610391e-06 5.0535510253104082e-05 -2.0215812890197865e-05 -2.4831934968584169e-05 3.1797694375642654e-08 -7.043183882221297e-06 1.2799217109517419e-05 2.6959962593791569e-05 2.190688452516586e-05 -1.0472773432446575e-05 -1.7524570620393252e-05 -6.0425868379922513e-05 -2.2233507895309186e-05 1.1399387496736025e-06 -2.8969312956825239e-05 3.0304263467311539e-05 1.9211293309859595e-05 -7.3444726867929668e-06 -8.276642248585119e-07 -2.5674604148114411e-05 -2.212145509493703e-05 -2.3230556470824348e-05 1.6315675569566115e-05 6.343465572050891e-06 -4.0912284660859802e-06 -4.2756802190471949e-05 2.2778229064134002e-05 1.5481960329353874e-06 -2.9035103231191487e-05 9.5774265860973026e-06 1.0801565310215662e-05 -1.8945864083084641e-05 0.00011715282643408473 -2.7515685481319175e-05 -1.7207880946383347e-06 -1.180885779137076e-05 -1.6725585764501123e-05 1.4404797138373864e-05 -4.9021710781375452e-05 4.3689415457642702e-06 4.9979165393978695e-05 3.4888552921232693e-06 2.2206736617477031e-05 1.0973049091986032e-05 2.2049814987117802e-05
leaf_weight=214 127 754 974 776 1554 1457 176 225 152 101 96 358 323 227 430 1564 1392 206 866 235 6282 130 141 143 2067 96 1572 1816 284 403 148 1595 180 363 456 806 131 745 1502 163 243 1314 438 100 232 1075 353 338 212 543 116 516 442 165 113 136
leaf_count=214 127 754 974 776 1554 1457 176 225 152 101 96 358 323 227 430 1564 1392 206 866 235 6282 130 141 143 2067 96 1572 1816 284 403 148 1595 180 363 456 806 131 745 1502 163 243 1314 438 100 232 1075 353 338 212 543 116 516 442 165 113 136
internal_value=1.16919e-06 -0.00047898 0.000591826 -0.00074226 0.00104776 6.64039e-05 0.000461092 -0.000833916 -0.00106879 -2.08737e-05 0.00164141 0.00173895 0.000593571 0.00026236 -0.000193337 -0.000828403 -0.000839124 0.000579159 0.00092235 0.00153494 -0.00073954 0.000808448 -0.000822173 0.000373906 0.000641957 0.000904822 0.00206407 0.00114385 0.000696365 -0.00149588 -0.00166719 -0.00217682 0.000174941 0.000868581 0.00166326 -0.00109659 7.49614e-05 0.00066647 -0.000350197 -0.000151827 -0.00057686 0.000874501 -0.000656292 0.000814622 -0.00263876 -0.000421695 -0.000166626 -0.00139461 -0.000116045 -0.00184698 -0.0013334 0.00242561 0.00107733 0.00276745 0.00274109 0.00376043
internal_weight=37566 20720 16846 16188 9660 4655 4532 1688 11533 7186 1116 3829 5831 5308 2892 8230 1822 2967 2323 3479 7846 2416 1878 4839 3621 1070 1930 1946 509 1179 3303 1743 684 504 992 1560 3416 1430 1986 339 470 1549 644 556 384 1218 1855 1194 313 881 243 777 1187 681 436 350
internal_count=37566 20720 16846 16188 9660 4655 4532 1688 11533 7186 1116 3829 5831 5308 2892 8230 1822 2967 2323 3479 7846 2416 1878 4839 3621 1070 1930 1946 509 1179 3303 1743 684 504 992 1560 3416 1430 1986 339 470 1549 644 556 384 1218 1855 1194 313 881 243 777 1187 681 436 350
is_linear=0
shrinkage=0.00757717


Tree=5
num_leaves=56
num_cat=0
split_feature=5 56 46 33 33 2 50 57 58 22 38 26 19 38 21 69 57 3 50 61 31 77 21 69 67 41 49 66 5 66 56 23 52 66 70 49 71 55 50 31 58 33 57 56 12 70 66 31 26 26 33 26 19 55 31
split_gain=181.324 111.625 64.9071 63.6246 58.1034 43.1981 33.5762 31.8726 28.1467 25.6779 25.2865 24.8732 23.573 22.4859 21.3398 20.9051 20.1987 19.573 19.503 23.1049 21.3986 19.4463 19.629 19.4063 17.5085 17.3948 17.3654 22.9751 21.5004 16.4067 16.3929 15.2098 24.9373 16.6549 14.9844 14.617 14.397 14.0556 14.0012 13.993 13.7123 13.6599 13.39 17.7134 13.0745 12.0102 11.2587 10.365 10.0428 9.59418 12.9019 12.0897 9.39324 8.58138 7.58289
threshold=-0.0018884940067152576 0.0050185737377348447 17312.072389297846 0.0031346716599820472 -0.00031311583446425034 -0.0014988781893477963 0.036861156108239486 348533.85416666669 311876.0178571429 5.1992562401543578 49.256310079367246 1.6655269190623125 12854.537474583336 75.606544439263956 3945.5153405026472 0.49999999999999978 110175.31250000001 -0.0060556558133472152 -0.070914065896937925 3380016.9322008467 21245.840809404766 0.0045692566850116098 173.14230163685977 -0.70710678118654757 0.21505270791691158 -2.5156544553249911 0.025594917516692094 -0.022746153684213285 0.046088134308920344 -0.087492832733397238 0.0086440716682486558 36004.290374166674 1122051.7380952381 0.14771696106708435 -0.8783796973249266 0.0068068642371729967 0.81174490092936691 385426.81250000006 -0.02681326188134919 62148.558328750012 233487.72619047624 -0.0039951980047435156 314918.93750000006 -0.079135466448828892 -0.00023280627939390258 1.0000000180025095e-35 -0.022028053375877706 17210.480725000005 41.1662250569725 44.839958563453301 0.00025326059499686254 34.372126701385021 23556.451795416677 369606.51190476195 17089.422091369051
decision_type=2 2 2 2 2 2 2 2 2 2 2 2 2 2 2 2 2 2 2 2 2 2 2 2 2 2 2 2 2 2 2 2 2 2 2 2 2 2 2 2 2 2 2 2 2 2 2 2 2 2 2 2 2 2 2
left_child=5 4 7 26 10 6 18 17 9 13 11 47 35 23 -13 16 -6 37 19 20 -1 54 -23 -7 44 -17 28 -28 -4 -27 -19 33 -33 -11 -18 46 40 -3 -15 41 -14 -12 52 -44 -5 -37 -8 -2 -45 51 -51 -9 -10 -26 -20
right_child=1 2 3 24 15 8 12 49 42 31 39 14 36 38 -16 25 34 30 21 -21 -22 22 -24 -25 53 29 27 -29 -30 -31 -32 32 -34 -35 -36 45 -38 -39 -40 -41 -42 -43 43 48 -46 -47 -48 -49 -50 50 -52 -53 -54 -55 -56
leaf_value=1.4867797950564758e-05 -4.4498248940273804e-06 1.0900598983784051e-05 2.3448221137768704e-05 1.2610830611556215e-06 2.5454345986929252e-05 -3.9161257310391235e-06 -1.3501965460387208e-05 1.8388911374000662e-05 2.0256428340509465e-05 -9.5717461479337716e-06 1.0737728279691632e-05 6.243983695641279e-06 1.4239298046323297e-05 -1.8619232897733291e-05 -3.8955801269607274e-05 3.3810869061222436e-06 -2.0553333755487432e-06 8.1902214945817695e-06 7.151253705545721e-06 -2.4908246008374038e-05 4.345650181240627e-05 2.1225363261999258e-05 1.4074645835353173e-05 1.1792613443121138e-05 -9.1432659966767913e-06 -4.2463502065964273e-05 1.1458474502004425e-05 6.681022218075885e-05 -4.0914270458795489e-06 -2.2602927174037539e-05 -7.4427007870325391e-06 -1.468883932677786e-05 3.0998777701408504e-05 1.4468848286361708e-05 -1.5142268942712083e-05 -1.8324802574658163e-05 -3.2275227466737732e-05 -2.856932233427082e-05 1.1224694207796026e-06 -0.00010722399435184579 -1.1996854419153751e-06 -1.1504605686421872e-05 6.1290795793003005e-05 3.0746663666607225e-05 5.8575596391657922e-05 1.5615575873128245e-05 -3.6607377196364695e-05 -2.81668788451018e-05 -2.4286214739037022e-06 4.8817247438515488e-05 5.4202928356573797e-06 -2.4498035678021692e-05 7.050168864016225e-05 -7.2025733147159561e-05 -9.5174071259504354e-06
leaf_weight=518 150 828 1031 1014 97 600 109 97 96 2322 354 2072 1083 164 97 150 632 250 207 104 324 568 4900 1876 447 259 163 537 400 1716 4543 629 624 104 3582 96 107 184 235 103 673 1265 138 188 106 140 101 101 528 141 205 98 98 98 314
leaf_count=518 150 828 1031 1014 97 600 109 97 96 2322 354 2072 1083 164 97 150 632 250 207 104 324 568 4900 1876 447 259 163 537 400 1716 4543 629 624 104 3582 96 107 184 235 103 673 1265 138 188 106 140 101 101 528 141 205 98 98 98 314
internal_value=7.65783e-07 -0.00047386 9.39819e-05 0.00087783 -0.00101843 0.00058463 0.000932616 -0.000374664 0.000161264 -2.28865e-05 -0.00031792 0.00018095 0.000140429 0.000513359 0.000442911 -0.001469 -0.0011649 -0.000538799 0.00119614 0.00220859 0.00262527 0.00103589 0.00116923 0.000782739 -0.000231141 -0.00208503 0.00174496 0.00272482 0.00126426 -0.00227406 -0.000741082 -0.000442366 0.000234575 -0.000792624 -0.00124386 -0.00142301 0.000515652 0.000417687 -0.00115399 -0.00101984 0.000680819 -0.000846054 0.00131417 0.00090299 0.000309775 -0.000121795 -0.00287652 -0.00207521 0.000421038 0.00138323 0.00214047 3.09229e-05 0.00311352 -0.00134529 -0.000360494
internal_weight=37566 20720 10142 3796 10578 16846 9244 6346 7602 6554 4142 2420 2309 2875 2169 6436 4311 5805 6935 946 842 5989 5468 2476 1665 2125 2131 700 1431 1975 4793 3679 1253 2426 4214 446 1863 1012 399 1722 1756 1619 1048 854 1120 236 210 251 716 541 346 195 194 545 521
internal_count=37566 20720 10142 3796 10578 16846 9244 6346 7602 6554 4142 2420 2309 2875 2169 6436 4311 5805 6935 946 842 5989 5468 2476 1665 2125 2131 700 1431 1975 4793 3679 1253 2426 4214 446 1863 1012 399 1722 1756 1619 1048 854 1120 236 210 251 716 541 346 195 194 545 521
is_linear=0
shrinkage=0.00757717


Tree=6
num_leaves=55
num_cat=0
split_feature=5 56 59 49 38 34 59 59 52 26 68 32 30 38 17 3 57 49 48 57 61 27 15 59 31 64 50 57 65 17 32 38 48 49 61 53 5 37 5 60 30 59 60 37 65 50 38 59 64 57 19 61 48 10
split_gain=179.594 110.466 81.3637 51.3051 50.1243 50.0459 35.6402 34.3337 36.5856 32.1347 29.1742 34.613 28.7035 27.425 26.9606 25.6907 25.5012 25.0236 22.3027 21.8042 31.0086 21.329 21.0016 20.5542 27.4753 21.6076 20.4484 20.3548 19.8977 19.4171 19.1622 19.0908 18.4069 17.894 24.3608 19.8605 17.3275 16.4909 14.6166 14.263 14.1956 13.9108 13.8061 13.6729 19.1266 15.9346 13.6348 13.3053 13.214 16.0604 12.3941 12.1056 8.43909 6.28838
threshold=-0.0018884940067152576 0.0050185737377348447 0.059317410520800536 0.0072800669420195344 17.069918699186882 -0.0014382958898361273 -0.21378429522696005 -0.10044447210097922 1047208.4196428573 1.6365162564624802 -0.70710678118654735 14.728097280294051 2.8107305128015789 60.212874770025813 4004.9447532002628 -0.0044856839541838047 255563.79166666672 0.011984418157427863 0.97428388327305016 112958.04166666667 1363008.8433855299 32563.677716145834 13742.725310000036 0.71387518120724203 11810.715172559527 96101228312.223221 -0.0088886436270292895 355143.72916666674 -0.074926243623676378 159.62393207818272 6.0985949313250343 42.68586236382567 0.24574908660815531 0.026493041853210296 4009596.0761011071 -0.061741881927263258 -0.015999735104130993 0.021965845094519935 -0.077376720432220922 1421293.7571951044 10.916164582153792 0.020597013508536714 3193755.9787202571 0.0075793002885174996 0.014163213738552562 0.040195036969120086 84.146182465735777 0.43771452225427893 108643645053.38692 286322.85416666669 20047.754157500007 1950497.0193639116 0.64149873401717661 0.43939393935257454
decision_type=2 2 2 2 2 2 2 2 2 2 2 2 2 2 2 2 2 2 2 2 2 2 2 2 2 2 2 2 2 2 2 2 2 2 2 2 2 2 2 2 2 2 2 2 2 2 2 2 2 2 2 2 2 2
left_child=2 5 4 22 38 9 48 8 12 41 11 31 -7 33 32 17 51 -8 -10 -9 -21 -18 43 24 39 29 -26 46 -17 -25 37 50 -11 34 -6 -35 -27 -24 -1 -12 53 -2 -42 45 -45 -3 -15 -33 49 -5 -4 -13 -32 -40
right_child=1 3 10 6 13 7 15 19 18 14 23 16 -14 27 -16 28 21 -19 -20 20 -22 -23 30 25 26 36 -28 -29 -30 -31 52 47 -34 35 -36 -37 -38 -39 40 -41 42 -43 -44 44 -46 -47 -48 -49 -50 -51 -52 -53 -54 -55
leaf_value=9.3417818877910471e-05 -6.8914052725206807e-06 9.5329483095601894e-08 1.6575525806683959e-05 -2.3970420727316598e-05 1.1044599647928796e-05 1.552487938272805e-06 -1.08280228133616e-06 2.9343937979122687e-05 -4.0737394766759688e-06 -1.0866499430719636e-06 1.6524382663169781e-06 -3.9849027656437718e-05 -2.5624745627497229e-05 2.7699866322741981e-06 -5.6267779574178793e-05 -1.7035298828306933e-05 -1.0414658417115241e-05 3.5371721689882839e-05 -2.352143950260759e-05 -1.997702742655788e-05 -8.6014658786512284e-06 8.2488447816486977e-05 -3.1131252717267354e-06 3.736331635520139e-06 -1.1161927173900251e-05 6.2185215108255744e-06 7.9885658687893114e-06 5.4909073927456888e-05 5.1369574044728157e-06 -5.9609621771808836e-05 -2.5271754427757663e-06 1.465225830318006e-05 1.2667338985586369e-05 1.2786658693004515e-05 -2.6961251197649739e-05 6.3826247675908098e-05 -3.416806712226499e-05 2.0493579731593828e-05 3.2936007364806543e-05 -3.0286481227432019e-05 2.7246355706961126e-05 -2.5760320931904594e-05 -5.4877960470178349e-05 -7.979194685103348e-06 -2.4774621093912151e-05 -1.639105997475952e-05 -1.7043473761703614e-05 -1.3562901567083748e-05 1.5322596729662926e-05 -3.7670583917275169e-06 4.2251415351006653e-05 -5.2693556279068555e-06 -2.604311591710396e-05 2.2044873823505258e-05
leaf_weight=119 166 347 238 495 5213 205 443 111 1038 1738 124 173 1553 1865 122 273 373 1050 1320 327 3273 191 258 143 1241 456 2293 128 5450 575 215 302 624 241 251 422 157 236 182 321 673 101 101 315 193 221 330 182 103 346 303 114 197 135
leaf_count=119 166 347 238 495 5213 205 443 111 1038 1738 124 173 1553 1865 122 273 373 1050 1320 327 3273 191 258 143 1241 456 2293 128 5450 575 215 302 624 241 251 422 157 236 182 321 673 101 101 315 193 221 330 182 103 346 303 114 197 135
internal_value=0 -0.000472397 0.000581031 9.24877e-05 0.00103521 -0.00101414 0.000358233 -0.00132314 -0.00179995 -0.000134393 -2.93089e-05 0.000782664 -0.002628 0.000828356 0.000133586 0.000539498 -0.00034536 0.00142489 -0.00118178 -0.000793809 -0.000896155 0.00058819 -0.00100075 -0.000316484 -4.34092e-05 -0.00113155 0.000179657 0.000126536 0.000308209 -0.00202351 -0.000148807 0.00172059 0.0003137 0.00109418 0.000950991 0.0022713 -8.39847e-05 0.000855492 0.00247813 -0.00181766 0.00219981 -0.00263154 0.00164225 -0.0017165 -0.00262112 -0.000904101 -4.41701e-05 0.000622777 -0.00102557 -0.0013403 0.00269931 -0.00218445 -0.00135656 0.00355445
internal_weight=37566 20720 16846 10142 9660 10578 8160 7827 4116 2751 7186 1876 1758 8450 2484 7216 851 1493 2358 3711 3600 564 1982 5310 3979 1331 3534 2323 5723 718 906 1025 2362 6127 5464 663 613 494 1210 445 1091 267 774 1076 508 568 2195 484 944 841 541 287 412 317
internal_count=37566 20720 16846 10142 9660 10578 8160 7827 4116 2751 7186 1876 1758 8450 2484 7216 851 1493 2358 3711 3600 564 1982 5310 3979 1331 3534 2323 5723 718 906 1025 2362 6127 5464 663 613 494 1210 445 1091 267 774 1076 508 568 2195 484 944 841 541 287 412 317
is_linear=0
shrinkage=0.00757717


Tree=7
num_leaves=57
num_cat=0
split_feature=40 56 59 46 1 2 1 57 57 61 59 59 59 61 61 63 37 18 59 65 23 64 62 2 4 41 40 63 2 6 39 67 18 19 61 64 65 67 37 1 20 18 40 25 32 20 61 67 62 52 37 55 74 6 4 56
split_gain=171.9 114.162 81.6386 59.5297 53.7064 48.2308 45.856 31.5099 26.3932 33.5137 23.726 22.6833 22.3627 21.4107 25.2222 22.2989 21.9018 19.541 19.588 19.1936 18.9584 18.5345 17.6523 18.1962 24.7065 17.2901 17.1791 17.1732 17.1155 16.9383 16.7115 16.4369 17.4248 15.4444 15.3129 17.8389 14.006 14.9154 13.2638 12.5033 12.1008 17.6287 11.9872 11.8316 22.4719 13.7715 11.7899 11.5072 11.4297 11.232 10.3942 9.86271 9.53641 9.29607 9.09234 9.03958
threshold=48.753185336007611 0.0050185737377348447 0.059317410520800536 17312.072389297846 -0.0007794689819417554 -0.0016896127009039528 0.0047634939772289728 348533.85416666669 115424.66666666667 1363008.8433855299 0.69556600141401181 0.56547528540392833 0.64710499278145273 2243030.2728666435 1427679.2436291531 100841428055.20836 -0.09895643008360204 0.56597104477943805 -0.19441817861382052 -0.015458503742553474 36004.290374166674 99486533877.380966 -0.01561608211835208 0.0030521658420247237 0.023482087199750205 0.020894635305822366 28.41789031898281 99070624027.375015 0.0045595359378350917 0.1426142752104024 62.082988722665128 0.36084916360305203 1.789729318826961 32279.749520000008 3847234.7049348014 99486533877.380966 -0.017455721792591691 -0.042275077587626046 -0.085165825176536633 0.0071971680230272792 43.12413630415984 48.105079480048097 44.270123211925331 183.34725854550803 1.5433539554565445 3.0925262213250018 3502592.2118828041 0.11642526213708095 0.0043881540206635048 1046038.4732142858 0.056382432093128439 377810.54166666674 -0.00074973080170676043 -0.053408504708739028 0.0061203375864032914 1.0000000180025095e-35
decision_type=2 2 2 2 2 2 2 2 2 2 2 2 2 2 2 2 2 2 2 2 2 2 2 2 2 2 2 2 2 2 2 2 2 2 2 2 2 2 2 2 2 2 2 2 2 2 2 2 2 2 2 2 2 2 2 2
left_child=2 4 5 7 22 26 31 17 -6 30 13 -11 29 14 19 28 -16 25 -19 -4 21 39 50 24 -24 -3 51 43 -15 -8 -10 32 -5 42 35 -28 -9 -38 -36 -7 48 -42 -29 44 -12 -45 -25 -14 -22 -23 54 55 -33 -35 -2 -1
right_child=1 3 10 6 8 20 12 36 9 11 27 -13 47 15 16 -17 -18 18 -20 -21 40 49 23 46 -26 -27 34 33 -30 -31 -32 52 -34 53 38 -37 37 -39 -40 -41 41 -43 -44 45 -46 -47 -48 -49 -50 -51 -52 -53 -54 -55 -56 -57
leaf_value=5.3892900723517255e-05 -8.7584008964993112e-06 1.0397216241139535e-06 2.0160458601559377e-05 -8.9276508381526225e-06 1.6120617255754245e-05 8.1965629553938737e-06 -1.5105000563894437e-06 3.8664945506395801e-05 -1.0578027404115902e-05 -1.7452866125481494e-05 -2.9125156957883766e-05 1.6222500301342124e-05 6.3665149610240017e-05 2.5218355944776954e-05 4.4881952854262147e-05 -6.630453566475159e-05 -1.1161284508272165e-05 -1.4869649603008757e-05 -1.9297632938816832e-06 1.3206281300838553e-06 2.000384159903601e-05 3.7108424070978483e-06 -9.0906014723665123e-07 -9.8066538180600653e-06 2.3336146278527727e-05 -2.4272675891659197e-05 2.0332200415838962e-05 2.9674154983137105e-07 -8.1576374589822918e-07 -4.140082648197329e-05 -2.6267556356238956e-05 4.8448839717202403e-05 2.5014906033600953e-05 5.1790522718238982e-06 3.2310271349167705e-05 8.5716956072113765e-06 -2.2822931771109077e-05 2.3959879518304427e-05 -2.4632260064702636e-05 -9.4719092034334983e-06 0.00012449642595225527 2.0856734609203876e-05 -4.1261555143237569e-05 -5.7384286350666599e-05 2.6084347840884459e-05 -3.0845932405256127e-05 -7.5644550736859149e-05 4.4427589287826857e-06 -3.9925564635956918e-06 -7.6145809400866276e-06 4.772532635647912e-06 1.8083750860486634e-05 3.4788356890930288e-05 4.8616050001571199e-05 -2.6990622047850377e-05 2.0080713547555272e-05
leaf_weight=186 409 111 320 265 194 1864 1138 121 383 5532 162 240 146 1139 149 102 2307 866 4637 764 666 209 2171 648 354 231 2964 353 467 221 213 158 1520 120 179 1027 130 301 280 468 135 141 106 108 173 744 104 148 298 815 195 107 268 104 286 119
leaf_count=186 409 111 320 265 194 1864 1138 121 383 5532 162 240 146 1139 149 102 2307 866 4637 764 666 209 2171 648 354 231 2964 353 467 221 213 158 1520 120 179 1027 130 301 280 468 135 141 106 108 173 744 104 148 298 815 195 107 268 104 286 119
internal_value=0 -0.000455491 0.000576782 0.000115783 -0.00100198 0.00103809 0.000858461 -0.00033259 -0.00142925 -0.00151324 -3.59758e-05 -0.00133606 -9.53181e-05 0.000224934 -0.000110862 0.000921739 -0.000536149 -0.000496222 -0.00038662 0.000851206 0.000481049 0.00018467 -0.000328741 -7.12045e-05 0.000236439 -0.00225406 0.0015643 -0.000768969 0.00114067 -0.000506168 -0.00322555 0.00157217 0.00125125 0.000186287 0.00142648 0.00157724 0.00139684 0.000752042 0.000112151 0.000558158 0.00128179 0.00268296 -0.00060718 -0.00131986 -0.000108428 -0.00179424 -0.00110603 0.00179765 0.000878558 -0.00066433 -0.00127504 0.00304775 0.00291208 0.00181817 -0.00170898 0.00374387
internal_weight=37566 20990 16576 10261 10729 9458 3864 6397 6562 6368 7118 5772 1653 5248 3540 1708 2456 5845 5503 1084 4596 3356 4167 3277 2525 342 4862 1870 1606 1359 596 2211 1785 683 4450 3991 552 431 459 2332 1240 276 459 1187 335 852 752 294 964 1024 890 412 426 224 695 305
internal_count=37566 20990 16576 10261 10729 9458 3864 6397 6562 6368 7118 5772 1653 5248 3540 1708 2456 5845 5503 1084 4596 3356 4167 3277 2525 342 4862 1870 1606 1359 596 2211 1785 683 4450 3991 552 431 459 2332 1240 276 459 1187 335 852 752 294 964 1024 890 412 426 224 695 305
is_linear=0
shrinkage=0.00757717


Tree=8
num_leaves=54
num_cat=0
split_feature=33 40 59 59 36 68 63 58 53 27 38 69 69 63 69 51 69 41 71 40 59 41 53 6 36 49 63 58 58 69 53 23 59 65 58 53 53 67 0 15 40 55 17 21 40 37 40 71 68 10 41 67 65
split_gain=171.652 108.009 69.3997 41.4636 37.6547 37.28 30.4559 28.5221 27.1805 25.6761 25.3571 36.096 35.2863 25.0482 25.3932 24.7949 23.8625 22.999 22.2378 20.4915 37.6627 21.014 20.631 19.7289 18.9011 20.6848 18.5621 17.6382 22.2453 20.3316 16.1046 16.0655 13.9868 13.5431 13.0384 12.4367 12.3287 16.8429 14.0841 12.5252 12.1414 21.1703 11.9669 10.8192 10.5933 10.2571 10.033 9.68526 8.62003 7.7551 6.35367 4.47922 4.47891
threshold=-0.0020489711894309255 50.161243901954514 0.18066767747236959 1.9202245083691529 0.010051969790087713 -0.70710678118654735 79497361188.270859 319737.72916666669 -0.03016272226624411 16654.406491666672 63.060796620904966 -0.60355339059327384 0.3794095225512602 45116978905.583336 0.86602540378443849 1127282.0833333337 0.1294095225512602 27.562419027535274 0.81174490092936691 43.335913816971974 -0.025729878134763181 17.493604684358619 -0.098907514072087629 0.018606513476064571 -0.053985766224952263 0.0076359381806150109 38062466281.916672 126551.9761904762 155299.46130952382 -0.37940952255126015 0.019206329454216856 21150.028107500002 0.35812007930278772 -0.015458503742553474 163071.8779761905 -0.019187034794983012 0.0060985573000293955 0.036300306939679457 -0.0093633116659802545 23441.175325 46.634100354710839 252819.73214285719 1680.3745680139962 1593.7646933980041 29.390339774248748 -0.0082504744238301991 39.056971814179825 0.81174490092936691 -0.86602540378443871 0.72727272714081515 2.2195871469280068 -0.093972681959087243 0.012183238100583972
decision_type=2 2 2 2 2 2 2 2 2 2 2 2 2 2 2 2 2 2 2 2 2 2 2 2 2 2 2 2 2 2 2 2 2 2 2 2 2 2 2 2 2 2 2 2 2 2 2 2 2 2 2 2 2
left_child=5 3 8 7 15 6 40 10 27 24 11 -2 -12 23 -15 34 17 -6 -18 20 44 22 -21 -10 -7 47 -27 29 -29 -3 35 -23 -17 -22 -4 -9 37 38 -8 50 46 45 -39 -41 -11 -42 48 -26 -1 -32 -38 -48 -43
right_child=1 2 4 -5 16 9 36 30 13 19 12 -13 -14 14 -16 32 18 -19 -20 21 33 31 -24 -25 25 26 -28 28 -30 -31 49 -33 -34 -35 -36 -37 39 42 -40 43 41 52 -44 -45 -46 -47 51 -49 -50 -51 -52 -53 -54
leaf_value=4.4711126222232691e-05 -4.4721207720009032e-06 2.6266537785812768e-05 -5.4232907390113407e-06 -6.1835021941902661e-05 2.0711506958068443e-05 -5.9305640762527248e-05 4.0545726064400076e-05 2.7340627790252911e-05 -7.8924807750515975e-06 4.6324924161312078e-05 2.7009761564793444e-06 6.7009075784816075e-06 -1.4639405317524142e-05 -4.9401659962653674e-06 -1.5985413636039137e-05 4.3843963265314586e-05 -6.8632553686405491e-06 -1.2516729489038349e-05 3.8287086476913427e-05 -2.3030683638003369e-05 2.3718813746595066e-05 -7.1837015128441191e-06 4.5743883387529712e-06 -3.4701778654275218e-05 -1.2262737539622271e-05 -1.1365673840006209e-05 9.4968656417554863e-06 -2.7508852712896317e-05 -1.4776527902587006e-05 -1.035143357766078e-05 7.7031191048548606e-05 2.9035749430220107e-05 -5.2745355535820732e-06 2.4913308962031636e-07 -1.5644113859557573e-05 -1.0070912559095122e-05 1.4445346743121152e-05 2.4976349251846376e-05 5.2626793059723449e-06 1.0347469408333553e-05 -1.5437795148179903e-05 6.6997068733313009e-05 -3.0388924752093668e-05 3.9057591916637614e-05 2.7273121861817774e-05 2.2665683312430036e-05 3.5536524399679754e-05 3.2623898273359586e-06 1.706822661640873e-05 3.0510075062052417e-05 -2.0535737223036018e-05 4.9401914432700558e-05 3.0871611015345263e-05
leaf_weight=245 1894 100 224 99 1498 97 161 446 444 202 1716 4921 1113 4859 930 113 1347 307 124 309 572 117 3032 264 670 127 946 651 3172 152 149 681 194 1088 529 252 122 121 374 184 112 99 311 334 915 281 110 229 120 148 100 163 98
leaf_count=245 1894 100 224 99 1498 97 161 446 444 202 1716 4921 1113 4859 930 113 1347 307 124 309 572 117 3032 264 670 127 946 651 3172 152 149 681 194 1088 529 252 122 121 374 184 112 99 311 334 915 281 110 229 120 148 100 163 98
internal_value=1.16919e-06 -0.00034798 -0.00076533 0.000231303 4.15828e-05 0.00075249 0.00149416 0.000276899 -0.00109642 0.000510022 0.000150689 0.000401136 -0.000452072 -0.000791628 -0.000626672 -0.00119924 0.000443586 0.00102752 -0.000271921 0.000731618 0.00123539 0.000393205 0.000128804 -0.00213768 -0.000229954 -6.83745e-05 0.000641059 -0.00158192 -0.00170997 0.000354427 0.00149836 0.00149794 0.000611624 0.000510242 -0.00193954 0.000865993 0.00083795 0.000272602 0.00117221 0.00157437 0.00240479 0.00161503 -0.000837961 0.0022196 0.00231139 0.000593473 0.00313201 -0.000916787 0.00229884 0.0029778 6.12666e-05 0.00423786 0.00364252
internal_weight=37566 25646 14908 10738 4336 11920 2935 10639 10572 8985 9644 6815 2829 6497 5789 1060 3276 1805 1471 6916 2777 4139 3341 708 2069 1972 1073 4075 3823 252 995 798 307 1660 753 698 1707 967 535 740 1228 590 432 518 1117 393 638 899 365 297 222 273 197
internal_count=37566 25646 14908 10738 4336 11920 2935 10639 10572 8985 9644 6815 2829 6497 5789 1060 3276 1805 1471 6916 2777 4139 3341 708 2069 1972 1073 4075 3823 252 995 798 307 1660 753 698 1707 967 535 740 1228 590 432 518 1117 393 638 899 365 297 222 273 197
is_linear=0
shrinkage=0.00757717


Tree=9
num_leaves=57
num_cat=0
split_feature=5 33 59 59 33 35 6 3 59 52 59 31 40 13 41 18 6 38 57 52 77 63 38 59 59 63 32 45 59 31 5 31 59 30 32 55 82 21 23 33 16 55 45 30 78 73 7 35 38 64 74 33 44 3 9 55
split_gain=172.269 81.775 75.3934 69.8966 49.7875 35.2212 30.2345 28.5037 28.7548 25.2391 25.0913 23.9549 23.355 22.7399 20.4323 19.3991 18.902 18.5085 18.1114 17.8298 17.6914 23.9828 25.1645 17.4528 16.9716 16.9367 16.6204 16.4689 16.445 16.1278 15.9554 14.2853 14.2012 13.9493 25.5541 14.7661 13.3106 13.275 13.0202 12.9943 12.9443 12.7969 12.3723 11.7445 11.4902 10.6329 11.8087 9.69295 12.185 10.6246 9.5738 7.92578 7.80533 7.07048 5.80996 5.45229
threshold=-0.0018884940067152576 -0.0023493834493212846 0.059317410520800536 0.18066767747236959 -0.0021627511039439269 0.01117298463334482 0.044229782627340126 -0.00072020243327258749 -0.12343323778651193 1063887.4255952383 0.69556600141401181 41911.323093571431 28.41789031898281 133.41877705678345 1.8616753204239134 34.845253138423985 0.1426142752104024 63.060796620904966 258013.25000000003 1141243.9434523813 0.0058623981025488952 94492769250.562515 70.64421918155854 -0.14523306840818914 0.37945585265441312 99070624027.375015 23.994491514269054 0.66306456350533016 1.0393999340255928 53616.965236130964 -0.01520407940277174 18274.616411904764 0.17240417297568059 16.088719172156644 1.5619824618792966 382349.05654761911 -0.0026602534120080952 138.69386519807082 91573.229365208346 0.002679656922930818 0.95333570316433136 386096.64583333343 0.71242952438724627 91.516538314028736 -0.0034525764785878761 0.028446409087318169 0.019799410631443529 -0.00014233375842220838 42.68586236382567 98564301454.797638 -0.0027937409924583263 -0.0045731009146224291 0.78003767605465424 -0.0080005417307346099 0.014079688766707434 369081.82738095243
decision_type=2 2 2 2 2 2 2 2 2 2 2 2 2 2 2 2 2 2 2 2 2 2 2 2 2 2 2 2 2 2 2 2 2 2 2 2 2 2 2 2 2 2 2 2 2 2 2 2 2 2 2 2 2 2 2 2
left_child=2 6 4 7 12 19 42 13 9 -9 20 14 55 -3 17 18 -10 -6 -7 27 37 22 -22 31 -23 33 -21 -5 -17 52 41 -14 45 34 -12 -35 -25 -4 -31 -15 -39 -27 44 -16 50 46 -8 48 -44 -49 -2 54 -13 -46 -34 -1
right_child=1 3 10 5 11 15 32 8 16 -11 25 29 23 39 43 28 -18 -19 -20 26 21 24 -24 36 -26 30 -28 -29 -30 38 -32 -33 51 35 -36 -37 -38 40 -40 -41 -42 -43 47 -45 53 -47 -48 49 -50 -51 -52 -53 -54 -55 -56 -57
leaf_value=4.5287162277020701e-05 -1.374175156304028e-05 -2.0012147988157249e-05 -3.0542367510140098e-05 -1.523549858789005e-05 7.0601554990959885e-06 6.0675460345545972e-06 -5.5768828088107548e-06 -2.1142560624772817e-05 -8.1544928850817293e-06 -1.3699041746884069e-05 -3.6738406828491921e-05 4.7045807923344736e-05 9.8545431118144066e-06 1.9561089547137755e-07 -3.3086605522028049e-06 -1.6307892378856934e-05 -5.869923197737761e-05 -2.4742766145024437e-06 3.5661054561931053e-05 4.1128329000521369e-05 1.4799344754680431e-05 -1.4303771972867438e-05 -1.6356603958256379e-05 -1.3738922311317411e-06 9.6777143124963333e-06 -8.961358820785672e-07 -3.6878151898609984e-06 -3.1788121208400592e-06 2.7733413494468951e-05 9.3557546021792073e-07 -2.2937809576320195e-05 3.0305761710994147e-05 5.779456303822248e-05 -6.1550585718321723e-05 1.117534989842512e-05 -9.1514427767763026e-06 1.8970425305181565e-05 1.2274558114899517e-05 8.5594632928229271e-05 -1.9037651585067237e-05 -7.5270832907498516e-06 2.9634491380130041e-05 5.41631212769312e-06 -2.6932513842661013e-05 1.3379632149229977e-06 -2.6890466122222609e-05 2.1824015563088324e-05 4.7494751519587602e-06 -1.9972260284224496e-05 2.0204632453313714e-05 2.4063909901734833e-05 1.9873547774478718e-05 1.9695127525313064e-05 -1.1356356341133095e-05 5.6011632748417494e-05 4.351010988718134e-05
leaf_weight=243 96 159 120 656 3356 1770 244 1864 4063 2449 191 288 425 2184 102 490 189 1383 611 113 2212 1091 248 511 725 320 334 585 96 408 180 1444 97 458 351 194 987 124 157 625 788 184 671 104 255 101 754 574 132 250 171 183 153 769 235 99
leaf_count=243 96 159 120 656 3356 1770 244 1864 4063 2449 191 288 425 2184 102 490 189 1383 611 113 2212 1091 248 511 725 320 334 585 96 408 180 1444 97 458 351 194 987 124 157 625 788 184 671 104 255 101 754 574 132 250 171 183 153 769 235 99
internal_value=-2.3794e-06 -0.000465084 0.000566638 -0.000716985 0.00100383 6.64039e-05 0.000434342 -0.00103331 -0.00125513 -0.00169139 -2.08737e-05 0.000573963 0.00169307 -0.00039261 0.000356698 0.000563837 -0.000812204 0.000458539 0.000868063 -0.000806986 0.000245231 0.000460345 0.000947985 0.00150049 -0.000199408 -0.000773762 0.000487922 -0.00127465 -0.000669524 0.00164012 0.000174941 0.00198955 0.00126645 -0.00131847 -0.000416407 -0.00206563 0.000889097 -0.0006445 0.000788244 -0.000234114 -0.000330571 0.000868581 -2.54371e-05 -0.00197689 -0.000579772 0.00077755 0.00101563 0.000413489 -0.000177323 0.000991019 0.000816618 0.00230607 0.0027272 -0.000945461 0.0030062 0.00358263
internal_weight=37566 20720 16846 16188 9660 4655 4532 11533 8565 4313 7186 5951 3709 2968 4945 2967 4252 4739 2381 1688 5308 4276 2460 3367 1816 1878 447 1241 586 1006 684 1869 1614 1194 542 652 1498 1032 565 2809 912 504 2918 206 1291 1099 998 1627 803 824 267 515 441 1024 332 342
internal_count=37566 20720 16846 16188 9660 4655 4532 11533 8565 4313 7186 5951 3709 2968 4945 2967 4252 4739 2381 1688 5308 4276 2460 3367 1816 1878 447 1241 586 1006 684 1869 1614 1194 542 652 1498 1032 565 2809 912 504 2918 206 1291 1099 998 1627 803 824 267 515 441 1024 332 342
is_linear=0
shrinkage=0.00757717


Tree=10
num_leaves=46
num_cat=0
split_feature=5 56 46 38 38 50 57 27 37 50 64 46 57 66 3 58 21 22 57 3 57 54 24 22 58 56 46 39 8 65 67 6 19 31 66 22 50 65 65 14 31 7 38 47 56
split_gain=167.643 107.673 60.2832 43.9794 37.3267 36.164 31.0976 29.6734 26.7925 25.1565 24.515 24.2421 23.8423 23.315 22.4161 22.3607 22.0118 26.7504 24.0283 20.4569 19.9309 19.4247 19.3883 18.5335 18.169 17.1214 16.2828 19.5761 15.4121 13.7077 13.9685 13.6712 12.1971 15.2714 20.0841 15.5924 12.1958 18.0567 16.0994 11.6833 12.0797 11.7121 7.71896 7.65092 7.31291
threshold=-0.0018884940067152576 0.0050185737377348447 17312.072389297846 47.162956473821488 70.334496145294892 -0.070914065896937925 348533.85416666669 28247.192564166671 -0.065205503815745566 0.056739640522586295 99569577435.913712 24154.667711661521 107385.12500000001 -0.087492832733397238 0.0013072361841968141 289309.39880952385 3945.5153405026472 1.909086141775737 119161.10416666667 -0.0060556558133472152 218483.25000000003 196167.00000000003 1.8075614875803387 2.3475139320597753 185799.89583333337 0.0086440716682486558 27671.304761813837 48.192600490547065 0.15593043770726006 -0.017455721792591691 -0.042275077587626046 0.062862785812618852 48086.22001041667 21113.4893733631 0.04888183293967608 1.1563831240436475 0.077094592641215556 0.020761354139236635 0.043737086215977279 0.30906632294542202 12554.093403630955 -0.085097630893343643 81.077178258771497 25008.992550000021 -0.041387959141938206
decision_type=2 2 2 2 2 2 2 2 2 2 2 2 2 2 2 2 2 2 2 2 2 2 2 2 2 2 2 2 2 2 2 2 2 2 2 2 2 2 2 2 2 2 2 2 2
left_child=4 3 6 16 5 32 19 10 43 21 11 -7 -10 -14 36 39 17 18 -2 31 -11 -9 -16 -24 -12 -21 27 -17 -19 -8 -31 -3 33 35 -35 -1 38 -38 -4 -6 -41 -42 -29 -5 -45
right_child=1 2 14 8 15 7 29 9 12 20 24 -13 13 -15 22 26 -18 28 -20 25 -22 -23 23 -25 -26 -27 -28 42 -30 30 -32 -33 -34 34 -36 -37 37 -39 -40 40 41 -43 -44 44 -46
leaf_value=-4.9079080326999876e-06 1.2656704320189477e-05 1.2397688733463061e-06 4.2380856556425449e-05 -2.8099389974029844e-05 1.2761343895670636e-05 6.7949852732531769e-06 3.7439571700370467e-05 -9.6356276166969691e-06 2.8087607718979314e-05 2.4756182301803639e-05 7.4658107028301285e-06 -1.7448631688615159e-05 -2.1296407322921927e-05 -1.2420630463091274e-05 3.8129703358508589e-05 4.583163107644339e-05 -4.787957439618208e-05 6.3360506168228914e-06 -1.3566721572853569e-05 8.2395712374340269e-06 -3.9415520525986776e-05 2.4055518476384844e-05 -3.7178890203140032e-05 6.3016132810369731e-06 -5.6012130649094769e-06 -7.2714902860646035e-06 7.6188238913880415e-05 -3.9600428127701856e-05 -6.7089817807992569e-06 -2.3713711554878629e-05 2.2926075808318289e-05 3.1228553177994934e-05 -1.1491541784534386e-05 3.8904127670404704e-05 3.8293985639986655e-06 1.4621360290306669e-05 -2.6960958309230848e-05 3.6893889636958604e-05 8.4677992128180743e-06 -2.2757756527092791e-05 9.6300463276608146e-06 -1.4577234624880516e-05 8.4826493422306889e-06 -7.5112362289314564e-05 -7.308991900176163e-05
leaf_weight=218 98 890 708 168 118 5159 120 232 107 286 313 410 781 5796 142 117 135 1700 722 250 414 4168 98 2385 2278 4543 131 122 834 127 294 122 110 497 152 657 102 101 260 139 266 960 99 138 99
leaf_count=218 98 890 708 168 118 5159 120 232 107 286 313 410 781 5796 142 117 135 1700 722 250 414 4168 98 2385 2278 4543 131 122 834 127 294 122 110 497 152 657 102 101 260 139 266 960 99 138 99
internal_value=-2.7828e-06 -0.000459233 9.84645e-05 -0.00099408 0.000558542 0.000687704 -0.000353173 0.000556449 -0.00133689 0.00100995 0.000272806 0.000556189 -0.00122179 -0.00127968 0.000853878 -0.00042616 -0.000297069 -0.000175744 -0.00136538 -0.000515304 -0.000322444 0.00122228 0.000464112 0.000307569 -0.000335688 -0.000722113 0.00101412 0.000129871 0.00020869 0.00138323 0.000733918 0.000462602 0.00175171 0.00192784 0.00281049 0.00127092 0.00172607 2.97054e-05 0.00208014 -0.000882763 -0.00108117 -0.000839144 -0.00119198 -0.0032313 -0.00411438
internal_weight=37566 20720 10142 10578 16846 14894 6346 13260 7089 5100 8160 5569 6684 6577 3796 1952 3489 3354 820 5805 700 4400 2625 2483 2591 4793 469 338 2534 541 421 1012 1634 1524 649 875 1171 203 968 1483 1365 1226 221 405 237
internal_count=37566 20720 10142 10578 16846 14894 6346 13260 7089 5100 8160 5569 6684 6577 3796 1952 3489 3354 820 5805 700 4400 2625 2483 2591 4793 469 338 2534 541 421 1012 1634 1524 649 875 1171 203 968 1483 1365 1226 221 405 237
is_linear=0
shrinkage=0.00757717


Tree=11
num_leaves=56
num_cat=0
split_feature=5 56 59 23 34 34 69 59 69 59 63 64 23 53 59 3 26 17 3 61 61 61 14 0 6 40 50 53 59 61 3 63 24 70 34 83 55 5 53 55 7 59 28 70 7 17 47 17 28 34 37 6 69 37 53
split_gain=165.925 106.242 75.4079 50.5734 46.8266 45.078 37.3725 35.5424 29.7594 28.4223 31.8699 28.1887 26.5437 27.9388 25.8682 25.4593 23.9897 24.7976 23.2268 21.9257 21.5135 33.6757 21.9998 20.6315 19.9731 19.6293 20.9133 19.2413 18.8114 17.2209 16.2976 16.2301 15.8266 15.5863 15.5418 23.9942 15.2533 15.2314 19.0079 15.1219 13.374 13.1475 12.7993 12.5497 18.3587 16.2224 12.9824 11.2062 22.3503 14.5949 10.5612 10.1436 9.66528 9.48765 7.42777
threshold=-0.0018884940067152576 0.0050185737377348447 0.059317410520800536 14991.231163333334 -0.002127631751618952 -0.010387631076542446 0.49999999999999978 0.028653757795695015 0.86602540378443849 -0.21378429522696005 39230355382.520836 99486533877.380966 35720.681756875005 -0.042661034035104677 0.69556600141401181 0.001679185873648348 1.6365162564624802 4004.9447532002628 -0.0070228656444403228 1441058.9178511545 2004900.8968459989 1427679.2436291531 16.651556934314716 0.00098881947845619344 -0.0093571830932298577 32.149520364198381 0.012501798205776462 -0.056465119984948457 -0.19143001744427354 4009596.0761011071 0.010801767480818293 99070624027.375015 2.4239804951598223 1.0000000180025095e-35 0.0068246245612464404 0.021565689535878962 165668.23511904766 -0.01520407940277174 -0.017038218878032359 403548.57142857148 -0.17779849984470739 -0.17446558905811663 29.231736879634344 0.87837969732492682 0.074970854686934554 184.5146762528519 21271.682674999916 159.62393207818272 1.3843423907955497 -0.019275780372546954 -0.032939401978274545 0.039043119854341619 -0.5 0.099919695673367351 0.021858830040307978
decision_type=2 2 2 2 2 2 2 2 2 2 2 2 2 2 2 2 2 2 2 2 2 2 2 2 2 2 2 2 2 2 2 2 2 2 2 2 2 2 2 2 2 2 2 2 2 2 2 2 2 2 2 2 2 2 2
left_child=2 4 5 43 16 25 7 23 9 30 -11 34 13 -13 20 51 41 40 -8 -20 21 36 -23 -6 -9 26 50 33 29 -27 -5 47 -30 -22 42 -36 -4 38 -33 -29 -18 -2 -7 44 46 -45 -3 48 -16 -49 -1 -10 -14 -17 -46
right_child=1 3 14 8 6 11 18 24 15 10 -12 12 52 -15 31 53 17 -19 19 -21 27 22 -24 -25 -26 28 -28 39 32 -31 -32 37 -34 -35 35 -37 -38 -39 -40 -41 -42 -43 -44 45 54 -47 -48 49 -50 -51 -52 -53 -54 -55 -56
leaf_value=6.788616306505299e-05 -2.1389710343484888e-06 -1.3165637263118012e-06 3.0051312241987305e-05 -3.9277039185158499e-07 -6.9933727278088314e-06 9.8719505922528072e-06 7.6138646099994081e-06 -3.0301809813920867e-05 -1.0646174124835396e-06 -2.5600290873853225e-05 1.270325588553901e-05 5.2925334504610288e-06 7.525777732391017e-05 -1.0158007575943159e-05 -2.2008074415919614e-05 -1.7592311794612573e-05 -6.2277015163265582e-05 -4.7516782538713832e-05 -1.9459947582247153e-05 -2.1971260964113529e-05 -2.1478456779780138e-05 -1.5506866282152735e-05 1.2887842216331427e-05 -1.8565268036819989e-05 6.5862174722185409e-06 3.7086142574867586e-05 1.4813084795009102e-05 1.8534625532425797e-05 2.6673187851663329e-05 -1.3638742929895104e-05 -2.1300499289688105e-05 -6.0607235589427514e-05 9.0719767637087135e-06 2.0432650096446216e-05 -9.4559624010952387e-06 3.395941640665163e-05 3.9902992446612964e-06 -2.2734522078175656e-05 1.593060828305763e-05 -2.5249757464723555e-05 6.1768919524303145e-06 -2.2278771186219616e-05 2.8351304373902855e-05 -2.2636674876872278e-07 -1.3833383507363733e-06 -4.4923842240742132e-05 -1.3309096040923096e-05 -1.2058886665583285e-05 4.2404509159606589e-05 -4.6777451672656744e-05 3.5692469446477734e-05 3.0761380343429019e-05 8.5851760341571421e-06 3.1601538697456144e-06 2.2494275583383247e-05
leaf_weight=281 102 688 147 539 1847 3482 107 159 254 161 5833 568 96 1013 121 676 144 111 439 2230 328 1450 372 2041 1295 730 173 1739 118 123 265 141 1013 142 628 368 923 180 363 207 1983 120 740 101 118 170 861 362 121 590 185 164 142 173 139
leaf_count=281 102 688 147 539 1847 3482 107 159 254 161 5833 568 96 1013 121 676 144 111 439 2230 328 1450 372 2041 1295 730 173 1739 118 123 265 141 1013 142 628 368 923 180 363 207 1983 120 740 101 118 170 861 362 121 590 185 164 142 173 139
internal_value=-4.39642e-06 -0.000458501 0.000554044 9.54761e-05 -0.000989782 0.000991285 -0.00126731 -0.000896117 0.00036715 0.000565983 0.000745553 0.000674892 -0.000136602 -0.000492607 -3.35266e-05 -0.000698383 -7.32913e-05 0.00016181 -0.00198094 -0.00211997 0.000236666 -0.000203817 -0.000830807 -0.00127409 0.000113573 0.0018394 0.00299671 0.000764545 0.00146563 0.00231612 -0.000770692 -0.000797968 0.000822538 -0.00060909 0.000958069 0.000104938 0.000862341 0.000130642 0.000808468 0.00109713 0.000344794 -0.00244836 0.00115895 -0.000958627 -0.000729094 -0.00248097 -0.0010408 -0.00133116 0.000118778 -0.0017013 0.00383245 0.000829776 0.00222028 -0.0014526 0.00114298
internal_weight=37566 20720 16846 10142 10578 9660 8118 5342 8065 6798 5994 7037 1819 1581 7186 1267 2460 2238 2776 2669 5308 2892 1822 3888 1454 2623 639 2416 1984 853 804 1878 1131 470 5218 996 1070 684 504 1946 2127 222 4222 2077 1806 271 1549 1194 242 952 466 418 238 849 257
internal_count=37566 20720 16846 10142 10578 9660 8118 5342 8065 6798 5994 7037 1819 1581 7186 1267 2460 2238 2776 2669 5308 2892 1822 3888 1454 2623 639 2416 1984 853 804 1878 1131 470 5218 996 1070 684 504 1946 2127 222 4222 2077 1806 271 1549 1194 242 952 466 418 238 849 257
is_linear=0
shrinkage=0.00757717


Tree=12
num_leaves=49
num_cat=0
split_feature=33 40 56 68 46 63 57 69 62 66 46 35 43 64 62 68 17 57 42 3 31 57 53 38 56 57 40 49 57 31 53 36 24 41 67 33 37 68 40 52 14 37 38 53 62 46 21 40
split_gain=164.613 102.356 89.9188 40.3241 39.8892 31.3225 29.674 25.8522 25.3396 24.7635 28.8101 24.1793 27.5666 24.0241 23.8022 22.1661 24.643 23.9941 22.1625 20.7494 20.3824 19.4564 16.9293 16.7192 19.3059 16.5878 22.5971 15.4261 15.0006 14.1956 13.6756 13.2408 20.5285 13.2166 13.0113 16.6751 14.8592 12.3984 12.3698 16.4019 10.9516 9.17367 9.07782 12.3624 8.89342 8.64864 7.62985 7.55425
threshold=-0.0022187495870204517 50.313841478536226 0.0050185737377348447 -0.70710678118654735 12597.582059314056 79497361188.270859 107385.12500000001 0.1294095225512602 0.033971371384658229 -0.087492832733397238 7483.2333485712343 0.00554976329752599 -0.55700831343489732 46763131675.226204 -0.018916126873404878 -0.78656609248549303 1528.5149414060518 355143.72916666674 12.437682788559409 -0.0058785987859581437 15175.729220238098 163353.45833333334 -0.037008567709583322 42.396859304497688 0.074301602835042183 344584.06250000006 48.753185336007611 0.010714050759115119 159082.70833333334 10914.299619851192 -0.088982890343422091 -0.033951262736202296 35.45746585220099 0.020894635305822366 0.63616921068262799 0.0027393395218697774 -0.087435228127608108 0.37940952255126076 46.634100354710839 857768.9107142858 0.95830120953301268 0.065373590686241836 9.4083818615344814 -0.012897113741571485 0.0018505692448197444 10116.170141151229 3490.50730013984 49.054268577773215
decision_type=2 2 2 2 2 2 2 2 2 2 2 2 2 2 2 2 2 2 2 2 2 2 2 2 2 2 2 2 2 2 2 2 2 2 2 2 2 2 2 2 2 2 2 2 2 2 2 2
left_child=3 15 6 5 13 29 -3 18 19 10 -8 12 -10 33 -9 16 23 34 -6 27 -7 -11 -19 45 -25 26 -21 30 -15 -1 -5 -18 -33 -4 36 -36 -17 -29 40 -40 -31 -27 43 -22 -44 -2 -24 -14
right_child=1 2 4 8 7 20 9 14 11 21 -12 -13 47 28 -16 17 31 22 -20 25 42 -23 46 24 -26 41 -28 37 -30 38 -32 32 -34 -35 35 -37 -38 -39 39 -41 -42 -43 44 -45 -46 -47 -48 -49
leaf_value=7.0104967126884171e-07 8.057430846365208e-06 2.9074294482569826e-05 8.0669205358270543e-07 -1.8243358725705385e-05 1.8614305276862977e-05 -3.226059682535382e-05 -5.1410005341163129e-06 4.4228268947392308e-05 1.9505252679154598e-05 -2.1567396699507386e-05 -2.9748756136799689e-05 2.7507543114258461e-05 -2.4401955100148224e-05 9.0086343904642334e-06 -7.67186737788916e-06 2.2083801240036584e-05 -5.1230882097555761e-05 -1.8249391659867513e-05 -4.2041059023998628e-06 9.5432901348589953e-06 2.1345785965304673e-05 -1.1526662830990808e-05 8.5949971963189038e-05 1.3601011295574733e-05 -2.5131380823617623e-05 9.9704509350210226e-06 -6.6078908187934372e-06 3.3999437983343811e-05 -5.9230389507514952e-06 4.3518877574429499e-05 6.5970696176340543e-06 -9.558911443298321e-06 4.3341527089733578e-05 -1.8757700899723833e-05 -4.4940595774546593e-05 4.8741113638621045e-06 -5.5880786069420478e-07 1.3940502748073653e-05 1.19469597651226e-05 5.3163485455255231e-05 4.5912224815015633e-05 4.4927290467531957e-05 1.7609404954545344e-05 4.2828558605774501e-05 2.9359663031976888e-06 3.1267914694571832e-05 2.0069223680660813e-05 -2.8329988727626806e-05
leaf_weight=135 234 103 156 248 1612 105 283 144 173 1443 538 135 334 255 1745 633 170 101 779 1172 110 5181 130 734 122 160 1627 1489 2109 163 1553 463 196 687 128 144 7566 1539 299 208 373 111 806 96 528 341 96 109
leaf_count=135 234 103 156 248 1612 105 283 144 173 1443 538 135 334 255 1745 633 170 101 779 1172 110 5181 130 734 122 160 1627 1489 2109 163 1553 463 196 687 128 144 7566 1539 299 208 373 111 806 96 528 341 96 109
internal_value=-5.60663e-06 -0.000338244 -0.000745258 0.000750768 -0.000156657 0.00153733 -0.00132888 0.000321832 0.00049386 -0.00138492 -0.00262782 -0.000835154 -0.0014731 -0.0007957 -0.000340102 0.000215016 0.000884363 4.28858e-05 0.00084542 0.000620429 0.000860317 -0.00123056 0.00205634 0.00148662 0.000812383 0.000132769 -4.00531e-05 0.000930118 -0.000403174 0.00248112 0.000373545 -0.000153487 0.000331005 -0.00189427 -3.47021e-05 -0.00166457 1.92189e-05 0.0012606 0.00278041 0.00192414 0.00358649 0.00192217 0.00108132 0.00256485 0.000850726 0.00248706 0.00320902 -0.00247554
internal_weight=37566 26093 15035 11473 7487 2823 7548 4280 8650 7445 821 751 616 3207 1889 11058 2260 8798 2391 7899 1645 6624 327 1431 856 3070 2799 4829 2364 1178 1801 829 659 843 8471 272 8199 3028 1043 507 536 271 1540 206 1334 575 226 443
internal_count=37566 26093 15035 11473 7487 2823 7548 4280 8650 7445 821 751 616 3207 1889 11058 2260 8798 2391 7899 1645 6624 327 1431 856 3070 2799 4829 2364 1178 1801 829 659 843 8471 272 8199 3028 1043 507 536 271 1540 206 1334 575 226 443
is_linear=0
shrinkage=0.00757717


Tree=13
num_leaves=50
num_cat=0
split_feature=5 56 46 68 3 22 69 61 50 61 51 56 27 60 69 3 61 67 27 27 56 50 54 46 3 61 5 50 72 83 73 60 25 68 42 30 63 29 22 67 5 31 70 65 49 37 42 83 6
split_gain=160.804 104.578 57.9949 42.1517 41.854 38.1173 35.6392 32.1452 36.0031 35.9787 28.6565 24.265 23.9239 29.8393 22.8645 28.766 22.5405 21.3312 21.2986 20.8895 20.8668 20.2065 30.0475 20.1798 19.6492 19.0433 19.0151 19.4153 18.9822 18.9126 18.7554 18.7354 18.6288 20.7793 26.3893 20.2827 18.5033 21.7473 16.8079 15.9482 14.4836 14.1684 12.801 11.6604 11.7586 10.6049 10.2001 8.42455 6.90432
threshold=-0.0018884940067152576 0.0050185737377348447 17312.072389297846 -0.70710678118654735 -0.0014416947627937102 5.6786798697584731 0.49999999999999978 2569466.4580642427 -0.069906918738068577 3889478.0624665362 1269943.2916666667 0.0086440716682486558 26603.148893958336 2450035.6124807568 0.86602540378443849 0.0039453008721496161 1222864.3258609297 0.75355955470268887 8474.7847870833339 54604.004140937504 -0.01243908241759034 -0.05309245778854476 211810.41666666669 8116.9644734958356 0.0074527109814557244 1950497.0193639116 0.094463289953496968 -0.07669170219375486 0.004493241412143357 0.047178622888317819 0.0030168936641813706 3832473.3870702605 3931.9457552313561 0.50000000000000022 1.3900400579182788 119.90670589429637 44302268744.187508 146.41905068500415 1.1843659485491567 0.21026594428377723 -0.022184544847720696 22108.362662500003 -0.21694186955877909 -0.017455721792591691 0.0092561989900219986 0.040474855385421178 -2.1979887153147577 0.009950023327619623 0.046909010705236127
decision_type=2 2 2 2 2 2 2 2 2 2 2 2 2 2 2 2 2 2 2 2 2 2 2 2 2 2 2 2 2 2 2 2 2 2 2 2 2 2 2 2 2 2 2 2 2 2 2 2 2
left_child=3 4 10 5 32 18 26 8 24 20 11 45 13 41 36 48 -8 25 -1 -18 46 22 -10 -22 38 -14 27 -6 40 39 -13 -23 33 35 -35 -2 -4 -38 -5 -11 -20 -7 -17 -12 -45 -3 -9 -30 -16
right_child=1 2 14 7 6 12 16 9 21 29 43 30 17 -15 15 42 19 -19 28 -21 23 31 -24 -25 -26 -27 -28 -29 47 -31 -32 -33 -34 34 -36 -37 37 -39 -40 -41 -42 -43 -44 44 -46 -47 -48 -49 -50
leaf_value=-7.4335852278647607e-06 5.8300793323396004e-06 2.0879882216411599e-05 -1.8149469060637227e-05 -5.4930999231436515e-06 -1.7689205961915816e-05 8.5616330807711998e-06 -2.3356356691990192e-05 5.0314868933544983e-05 -4.6090099896425307e-05 -4.791194576703813e-06 4.1888357018976959e-05 -1.118817853682471e-05 -1.1162641411501553e-06 -6.6909619223461358e-05 3.1560432521856503e-06 -4.0534789064009501e-05 -1.7512735115640114e-05 -7.0993208186984188e-05 3.9187725269888982e-05 -7.1328802574658498e-05 5.0389318401095882e-05 6.0547264632080679e-07 -1.1076601616416237e-06 7.2011768723809892e-06 -1.2167527320325174e-05 4.0479101397247752e-05 -7.8389944438373655e-05 -7.3447691040398225e-06 -1.1348698984705645e-05 9.5505818180521449e-05 -5.3720562416828811e-06 -7.7906536938772194e-05 -4.2062333939905457e-05 -1.7395851115996524e-05 3.4526655340734052e-08 -2.2189531672237825e-05 9.3081762493465813e-05 1.725613193995501e-05 1.7304886359327008e-05 -0.00010132950642054763 1.8157263028613937e-05 -1.456444306748447e-05 -8.3025946905715413e-06 -1.8016511995187324e-05 1.5840803410315717e-05 -4.750220545578656e-07 1.917137818915971e-05 2.8824847383383945e-05 2.980389344397986e-05
leaf_weight=116 1666 160 148 166 744 812 163 510 141 779 106 212 288 157 96 141 2079 99 458 221 108 7674 259 1075 174 942 160 3857 125 117 5149 114 124 536 733 295 171 2899 761 118 865 281 238 153 447 119 605 102 103
leaf_count=116 1666 160 148 166 744 812 163 510 141 779 106 212 288 157 96 141 2079 99 458 221 108 7674 259 1075 174 942 160 3857 125 117 5149 114 124 536 733 295 171 2899 761 118 865 281 238 153 447 119 605 102 103
internal_value=-5.60663e-06 -0.00045265 9.69703e-05 0.000544149 -0.000979754 0.00119729 -0.00130457 0.000323982 9.52707e-05 0.000964927 -0.000346009 -0.000526349 0.000619279 -0.000132105 0.00083791 -0.000547739 -0.00204502 0.00132707 0.00209097 -0.00185064 0.00148958 -7.75435e-05 -0.00173805 0.000786388 0.00138165 0.00160017 -0.000921122 -0.000831291 0.00232564 -0.000222614 -0.000639954 7.58536e-06 -0.000279658 -0.000168416 -0.000924145 0.000319889 0.00108729 0.00121374 0.00182073 -0.000597905 0.00267307 0.000310495 -0.00177435 0.00109223 0.000679155 0.00164998 0.002234 0.000293374 0.00178009
internal_weight=37566 20720 10142 16846 10578 4245 7224 12601 9289 3312 6346 5640 2579 1250 3796 578 2463 1329 1666 2300 2298 8188 400 1183 1101 1230 4761 4601 1550 1014 5361 7788 3354 3230 1269 1961 3218 3070 927 897 1323 1093 379 706 600 279 1115 227 199
internal_count=37566 20720 10142 16846 10578 4245 7224 12601 9289 3312 6346 5640 2579 1250 3796 578 2463 1329 1666 2300 2298 8188 400 1183 1101 1230 4761 4601 1550 1014 5361 7788 3354 3230 1269 1961 3218 3070 927 897 1323 1093 379 706 600 279 1115 227 199
is_linear=0
shrinkage=0.00757717


Tree=14
num_leaves=39
num_cat=0
split_feature=33 40 56 46 57 7 33 53 66 46 30 30 61 60 46 50 65 55 14 3 35 83 61 11 44 53 7 41 50 67 21 37 24 53 6 37 12 77
split_gain=163.242 100.126 85.3439 39.219 29.3789 26.1485 29.1962 27.7023 25.585 28.8101 26.4025 23.7258 21.2174 24.5666 21.3965 20.3257 23.7851 20.0383 19.0178 18.8279 18.5382 18.3087 19.5703 17.6589 17.4492 17.406 16.9362 17.2295 16.2607 14.7474 14.1644 12.0282 11.2283 10.8712 10.8443 9.76738 7.8847 6.30826
threshold=-0.0022187495870204517 50.313841478536226 0.0050185737377348447 12597.582059314056 107385.12500000001 0.033114424974671104 0.00090147234036364054 -0.079279653219578847 -0.087492832733397238 7483.2333485712343 2.1584253451404467 2.4367063012017831 2556357.240514969 3173805.3093878301 7417.4759284918173 -0.070914065896937925 0.036734952887387269 348715.56250000006 6.5209661949093611 -0.0054046273842206496 0.0038774581716914951 0.044495556549886663 3141587.5082001272 0.0004137429216576161 2.1192841235550417 -0.22193962846964674 -0.11857685211078316 0.41402338922931398 0.040195036969120086 0.50980437351350794 1315.9082545322433 -0.010880588483233143 0.94590318240225435 0.019936460665711756 0.024149876047210975 0.059156749702880103 -0.0094405492902809255 0.01753200061539913
decision_type=2 2 2 2 2 2 2 2 2 2 2 2 2 2 2 2 2 2 2 2 2 2 2 2 2 2 2 2 2 2 2 2 2 2 2 2 2 2
left_child=11 12 4 17 -3 7 -7 -5 9 -6 -10 32 13 15 -14 18 -17 24 -2 20 25 22 -16 34 -4 -13 33 -28 -27 -15 -19 -22 -1 -25 36 -33 -21 -31
right_child=1 2 3 5 8 6 -8 -9 10 -11 -12 19 14 29 21 16 -18 30 -20 23 31 -23 -24 26 -26 28 27 -29 -30 37 -32 35 -34 -35 -36 -37 -38 -39
leaf_value=-1.9526867336332548e-08 5.989587114177665e-06 2.8986690537654804e-05 -1.1703201079845655e-05 2.8381768036415379e-05 -4.9693492415011235e-06 2.1966118983955043e-05 4.4164651916500449e-06 -8.4727585246929986e-06 1.5485894005740807e-05 -2.9429169825660705e-05 -1.4314187832513509e-05 -3.2640901456992568e-05 2.4130397873461043e-05 1.4148349131585222e-05 1.432444202083102e-05 -2.6765511620162863e-06 7.3641035676735185e-06 2.3960470741903446e-05 3.530019049064209e-05 -3.7089474984266402e-06 5.9524835218450094e-06 9.4782153995663973e-05 -4.3681531456446121e-06 -3.7960145601215244e-05 2.3629455234141006e-05 1.7478024076897239e-05 1.489909634027655e-05 3.8883553044648089e-06 5.6159688195577608e-06 -6.2162276776320293e-05 -4.7056248600911199e-06 3.3121197245926647e-05 -2.7110452160316042e-05 1.8967527627192066e-05 1.2964177175004899e-05 2.5442617853407571e-05 -1.4876040873504035e-05 -4.1006736867692731e-05
leaf_weight=125 945 103 1642 107 283 723 2141 1309 123 538 6501 136 168 96 1141 5478 1529 140 129 151 153 183 1190 230 125 4757 1318 1924 1512 96 1300 246 112 151 169 286 203 103
leaf_count=125 945 103 1642 107 283 723 2141 1309 123 538 6501 136 168 96 1141 5478 1529 140 129 151 153 183 1190 230 125 4757 1318 1924 1512 96 1300 246 112 151 169 286 203 103
internal_value=-6.41344e-06 -0.000337663 -0.000740218 -0.000166777 -0.0013088 0.00030767 0.000724324 -0.000533949 -0.00136456 -0.00262782 -0.00120769 0.000746805 0.000209535 2.15266e-05 0.000796072 0.000100136 -4.84404e-05 -0.000800425 0.00107074 0.000796949 0.00103427 0.000620221 0.000438135 0.000390713 -0.00134117 0.0009071 0.000578864 0.000756729 0.000965454 -0.00212525 -0.000135721 0.00222049 -0.00162269 -0.000930194 -0.000909451 0.00275919 -0.00166427 -0.00330164
internal_weight=37566 26093 15035 7487 7548 4280 2864 1416 7445 821 6624 11473 11058 8376 2682 8081 7007 3207 1074 11236 7090 2514 2331 4146 1767 6405 3623 3242 6269 295 1440 685 237 381 523 532 354 199
internal_count=37566 26093 15035 7487 7548 4280 2864 1416 7445 821 6624 11473 11058 8376 2682 8081 7007 3207 1074 11236 7090 2514 2331 4146 1767 6405 3623 3242 6269 295 1440 685 237 381 523 532 354 199
is_linear=0
shrinkage=0.00757717


Tree=15
num_leaves=54
num_cat=0
split_feature=5 1 50 68 22 69 61 50 61 53 3 53 6 1 37 15 53 32 3 68 7 1 50 37 3 8 22 50 50 34 51 22 6 3 30 78 15 53 57 51 50 50 79 34 30 69 7 49 3 79 50 25 75
split_gain=157.502 91.5712 44.5376 39.9988 38.7016 31.7069 31.4721 36.7775 34.5356 36.5039 30.5501 29.4313 26.9425 25.8083 25.5083 25.8152 24.9759 22.8258 22.5003 22.3046 20.2273 19.9605 19.0659 18.2683 17.0502 16.9269 16.5572 15.9935 15.4331 14.7626 14.3486 14.3455 14.168 14.7334 13.5392 15.633 12.9543 12.5365 12.5068 11.7402 11.3226 11.2421 14.5427 10.5539 10.2909 9.91821 9.86158 9.21466 9.74006 9.07538 8.79144 7.21922 5.97417
threshold=-0.0018884940067152576 -0.0049607316522101144 -0.039234359790800803 -0.70710678118654735 5.6786798697584731 0.86602540378443849 2569466.4580642427 -0.069906918738068577 3889478.0624665362 -0.02655933783353431 -0.002172508214717594 -0.32873367139713483 0.044229782627340126 0.0031944220037040121 -0.070819817775755786 21886.015009999992 0.10467224655378661 54.270379746804622 -0.052198888639745471 0.37940952255126076 0.0019134236334961143 -0.0011255773072654793 0.066572275844827181 -0.01261967743517539 0.0074527109814557244 -0.39728761158192466 1.1843659485491567 -0.058490143279813993 0.052437407698399337 0.012329773018299075 1125514.0208333337 2.7213413761080028 0.01913813888697458 -0.01152322200306388 122.05876935833473 -0.0046845269921312318 6950.0350212499961 -0.098907514072087629 230647.89583333337 1207167.5625000002 0.0030947574272590654 0.014508433626365893 0.01217516898209535 -0.010907922716856531 139.4906285923343 0.1294095225512602 -0.0049244318363454989 0.021624085338002655 0.006092533524774014 0.01641978806427314 0.0091729645457864235 2683.4963603789611 0.010018556642081079
decision_type=2 2 2 2 2 2 2 2 2 2 2 2 2 2 2 2 2 2 2 2 2 2 2 2 2 2 2 2 2 2 2 2 2 2 2 2 2 2 2 2 2 2 2 2 2 2 2 2 2 2 2 2 2
left_child=3 12 11 4 13 14 7 24 17 37 31 -3 19 28 38 -16 29 44 -6 34 -11 22 -9 -12 26 40 -5 -23 36 -13 43 -7 33 -20 35 -2 -1 -10 -4 -32 49 42 -15 -21 -8 -34 -30 48 -27 -14 -49 -36 -42
right_child=1 2 5 6 18 10 8 21 9 20 23 16 25 41 15 -17 -18 -19 32 30 -22 27 -24 -25 -26 47 -28 -29 46 -31 39 -33 45 -35 51 -37 -38 -39 -40 -41 52 -43 -44 -45 -46 -47 -48 50 -50 -51 -52 -53 -54
leaf_value=6.7833957713237404e-06 3.2908964400963152e-05 2.1798551027446975e-05 -4.5055529642301623e-05 -5.4968618928878685e-06 7.0730089755040797e-05 -7.0969802198300833e-06 1.7075799314699788e-05 6.5516922248983928e-06 -0.00012550498001517684 5.1697292188296124e-05 -2.9106546487559055e-05 -1.1803645760273127e-05 1.8975621526160345e-05 -1.5144656764843247e-05 -5.8980394424748778e-06 1.8512286956598333e-06 3.0370522119771912e-05 8.0231864213710399e-05 1.4580480552274564e-05 4.0865945666361895e-06 -2.0980802855724169e-05 -2.9114878450274869e-05 -9.7779072075390344e-06 -1.5411963288220507e-05 -1.2138368318466331e-05 9.1235530860394299e-06 1.6981954255365287e-05 -3.5044599912497365e-06 -2.9456035804854194e-06 -3.0940447454497288e-05 3.5062635936274259e-05 1.3740887131512003e-05 3.5933075707587765e-05 -5.8081328151799374e-06 -5.6037415103562769e-05 9.648733359191133e-06 2.7744230564104644e-05 -2.3752778494831153e-05 -3.9509111875669194e-05 -1.6522169523923272e-05 1.8156769500400371e-05 2.2883334644332536e-05 1.9847685688433579e-05 -2.0566989013903593e-05 9.3535903034447978e-05 1.0074442077585041e-05 2.2171889208015602e-05 2.7035567004302223e-06 -1.5423502565092824e-05 -7.7789532449450209e-06 4.9955424396904587e-05 5.2748442713148346e-06 5.9258595435008544e-05
leaf_weight=124 163 99 141 166 190 96 2023 3568 140 335 250 2849 212 147 5274 5393 126 111 801 101 212 134 644 1410 174 289 761 3842 145 750 180 310 165 1248 129 1069 883 327 175 192 98 147 117 410 164 175 103 175 117 110 183 142 277
leaf_count=124 163 99 141 166 190 96 2023 3568 140 335 250 2849 212 147 5274 5393 126 111 801 101 212 134 644 1410 174 289 761 3842 145 750 180 310 165 1248 129 1069 883 327 175 192 98 147 117 410 164 175 103 175 117 110 183 142 277
internal_value=-8.02705e-06 -0.000450456 -0.000691021 0.000536053 0.0011723 -0.000480089 0.000321576 9.52707e-05 0.000955776 -0.000207672 -0.00134145 -0.00141034 0.000604246 0.00207278 -0.000317898 -0.000254862 -0.00151901 0.0014698 0.000589901 0.000107318 0.00111881 -7.93943e-05 0.000283855 -0.0017973 0.00139542 0.00141461 0.00180438 -0.000464587 0.00261264 -0.00163534 -0.000847603 0.000518518 0.000389441 0.000150851 0.000669389 0.00100724 0.00303025 -0.00176451 -0.00243941 0.000280872 0.00226922 0.000420077 -0.000510409 -0.00167192 0.00129842 0.00182185 0.000909661 0.000632558 -0.000145438 0.00121812 0.00151877 -0.000860453 0.00316655
internal_weight=37566 20720 16873 16846 4245 13049 12601 9289 3312 1014 2066 3824 3847 1666 10983 10667 3725 2298 2579 2386 547 8188 4212 1660 1101 1461 927 3976 1255 3599 883 406 2389 2049 1503 1232 1007 467 316 372 697 411 264 511 2187 340 248 764 406 322 358 271 375
internal_count=37566 20720 16873 16846 4245 13049 12601 9289 3312 1014 2066 3824 3847 1666 10983 10667 3725 2298 2579 2386 547 8188 4212 1660 1101 1461 927 3976 1255 3599 883 406 2389 2049 1503 1232 1007 467 316 372 697 411 264 511 2187 340 248 764 406 322 358 271 375
is_linear=0
shrinkage=0.00757717


Tree=16
num_leaves=48
num_cat=0
split_feature=3 5 59 69 52 68 21 62 56 66 20 59 48 1 2 21 53 77 2 59 47 69 59 59 37 7 52 50 50 77 59 67 77 70 38 56 4 56 62 50 4 28 62 47 59 21 1
split_gain=157.557 78.4642 90.2629 57.5458 50.3504 43.6562 47.5885 42.0577 34.5804 33.1901 31.6393 30.4259 26.8187 25.1336 24.1839 22.503 21.0976 19.5329 18.9829 30.9459 18.7706 19.3078 18.7336 18.6513 18.4856 18.3011 17.8775 16.0027 17.469 15.315 15.1012 15.9409 14.1852 14.2212 13.6766 12.4692 12.0901 11.5705 10.7998 16.9868 10.7008 10.2941 10.1294 7.86539 7.01285 5.30647 5.07695
threshold=-0.0044856839541838047 0.00059588933885845752 -0.13312832207866174 0.86602540378443849 1063887.4255952383 -0.70710678118654735 1219.033454781026 0.033971371384658229 0.0050185737377348447 -0.089105260714792342 43.12413630415984 1.4361620116688039 0.8494372744212686 -0.0058117596066449831 0.001185460595343413 1540.8165553524721 -0.077280856544560836 0.004692720464558737 -0.015771541828571985 0.092216426920632935 -80065.037150000237 0.91597561503675351 1.0667411708946033 0.60213403535133159 0.044070419440744087 -0.10475034430187773 1301648.8333333337 0.077094592641215556 -0.039930349578622952 0.0061106892631856554 0.87228359515886555 0.014266244146458608 0.0090986150439466684 0.87837969732492682 25.538364122930677 -0.071238709207030779 0.0072515838107617423 -0.12626257509707503 0.12682738875100422 0.066572275844827181 0.022543548369889258 10.728679535600079 -0.00038978195117606024 -74799.873694999929 0.078194711111330598 232.50442581037683 -1.0000000180025095e-35
decision_type=2 2 2 2 2 2 2 2 2 2 2 2 2 2 2 2 2 2 2 2 2 2 2 2 2 2 2 2 2 2 2 2 2 2 2 2 2 2 2 2 2 2 2 2 2 2 2
left_child=5 10 4 8 15 6 32 11 26 36 14 18 -11 -10 23 25 -12 -9 19 -7 21 -16 27 29 -20 -3 -4 28 -8 -2 31 -5 34 41 44 -18 -6 -22 39 -19 -37 -34 -25 -13 -1 -36 -17
right_child=1 2 3 30 9 7 22 17 13 12 16 43 -14 -15 20 46 35 38 24 -21 37 -23 -24 42 -26 -27 -28 -29 -30 -31 -32 -33 33 -35 45 40 -38 -39 -40 -41 -42 -43 -44 -45 -46 -47 -48
leaf_value=2.829157588456348e-05 1.0871675320807087e-08 -4.9158933689000043e-05 -5.3108312936954292e-06 -1.9346517481535586e-05 -9.0041958483789578e-06 3.4586418428190795e-05 -9.0907331772903752e-06 -2.9548325963534633e-05 3.1257822034871931e-05 3.1913779283338072e-06 -6.219406104288492e-05 -3.0807540184272908e-05 -1.5120439189491064e-05 2.8677725131799382e-06 -7.5480429044958499e-06 -1.377982005048856e-05 9.5631946058772859e-05 -3.8166867194403826e-06 2.2774811051404395e-06 4.0676812346053714e-06 -1.1751937521334064e-05 -2.2901287704302785e-05 -4.6238969317075018e-05 3.9812341963328535e-06 1.6752397193336911e-05 -1.6670705143260369e-05 -5.4942084764784218e-05 -2.0492979812901197e-05 1.8625666674032662e-05 1.1402024892731606e-05 1.0502722793103746e-05 -1.1810651077401884e-05 3.4685769218764772e-05 1.8648545214272962e-05 1.1818028903978756e-05 1.7945097000159155e-05 -5.6961429931682946e-05 2.302008069619708e-06 1.9346786375461016e-05 -3.0331348986246197e-05 5.9179179458373438e-05 0.00015134821516773128 -3.5978318598569151e-05 -7.6300751757668917e-05 1.8350360168102118e-05 -3.0453307704724109e-06 -3.121925397451894e-05
leaf_weight=161 1259 225 3046 839 99 1555 296 96 507 979 96 155 1853 4518 1732 96 110 405 4686 1104 105 309 112 136 1299 1902 141 120 1234 2049 162 678 710 172 164 621 131 2501 153 226 136 98 164 101 105 98 122
leaf_count=161 1259 225 3046 839 99 1555 296 96 507 979 96 155 1853 4518 1732 96 110 405 4686 1104 105 309 112 136 1299 1902 141 120 1234 2049 162 678 710 172 164 621 131 2501 153 226 136 98 164 101 105 98 122
internal_value=-8.43046e-06 -0.000366492 -0.000699261 -0.000268729 -0.00148651 0.000664108 0.00142219 0.000410458 -7.19372e-06 -0.00084575 0.0001856 0.000566825 -0.000620142 0.000384192 3.37744e-05 -0.00232238 0.00148521 -0.00116901 0.000643218 0.00117623 -0.000327395 -0.000871594 0.000575305 0.00049937 0.000406124 -0.00208307 -0.000624767 0.000779652 0.000989346 0.000663757 -0.00154683 -0.00178191 0.0024105 0.00295139 0.00140293 0.00185932 -0.00361409 9.82592e-05 -0.000771023 -0.00121001 0.001509 0.00337324 -0.00130739 -0.00200513 0.00261296 0.000167516 -0.00464629
internal_weight=37566 24516 15298 9891 5407 13050 3270 9780 8212 3062 9218 8900 2832 5025 8255 2345 963 880 8644 2659 4647 2041 1762 3608 5985 2127 3187 1650 1530 3308 1679 1517 1508 980 528 867 230 2606 784 631 757 808 300 256 266 262 218
internal_count=37566 24516 15298 9891 5407 13050 3270 9780 8212 3062 9218 8900 2832 5025 8255 2345 963 880 8644 2659 4647 2041 1762 3608 5985 2127 3187 1650 1530 3308 1679 1517 1508 980 528 867 230 2606 784 631 757 808 300 256 266 262 218
is_linear=0
shrinkage=0.00757717


Tree=17
num_leaves=48
num_cat=0
split_feature=33 5 59 59 73 58 53 49 59 5 63 22 54 53 62 38 66 38 38 48 59 59 53 64 53 33 64 38 5 4 27 49 53 63 1 53 53 30 43 54 10 10 49 17 7 38 67
split_gain=158.914 95.0296 70.3874 39.4905 31.5273 29.8381 29.0935 28.571 33.4167 35.7961 23.2883 21.8625 21.7235 21.0408 20.5313 20.5032 19.0528 18.6306 18.3873 18.0099 25.4147 17.2132 17.0313 16.207 16.0098 20.2321 14.806 14.688 17.7123 15.7827 14.0995 17.5626 14.3124 13.458 12.9166 12.5285 11.4307 10.5559 10.5006 12.3773 8.9945 8.47482 8.37655 8.16175 7.84004 6.91758 6.46266
threshold=-0.0022187495870204517 0.00059588933885845752 0.18066767747236959 1.9202245083691529 0.0044991456138913826 319737.72916666669 -0.03016272226624411 0.010714050759115119 0.078194711111330598 -0.0021866590723900732 43002582517.083336 5.1992562401543578 372209.27083333343 -0.079279653219578847 -0.016417899004663502 78.398133035769789 0.20327301781735521 47.162956473821488 17.069918699186882 0.8494372744212686 -0.12343323778651193 0.95864408030977721 0.019206329454216856 99486533877.380966 -0.0021362476353079525 -0.012220256599299482 98915272747.202408 38.18896777905065 -0.12060889994365147 0.013149053721881245 52656.393837500007 0.013491158324980356 -0.057813403246950938 42020167984.770836 -0.0046243908092347122 0.06038323593833906 -0.019187034794983012 2.4367063012017831 -6.2066760911199372 389178.22916666669 0.72727272714081515 0.84270132126418529 0.0091973554642268644 294.67980425879369 0.027925902905425629 20.471777164886237 -0.0073340604953905921
decision_type=2 2 2 2 2 2 2 2 2 2 2 2 2 2 2 2 2 2 2 2 2 2 2 2 2 2 2 2 2 2 2 2 2 2 2 2 2 2 2 2 2 2 2 2 2 2 2
left_child=7 3 6 5 41 11 19 8 9 18 33 15 -13 43 35 -2 -16 -12 42 26 -21 27 36 -20 45 -26 -3 28 -9 -30 31 -29 -32 -8 -15 -6 -7 -10 -39 -40 -24 44 -1 -11 -4 -23 -27
right_child=1 2 4 -5 14 22 10 21 37 13 17 12 -14 34 16 -17 -18 -19 23 20 -22 24 40 -25 25 46 -28 30 29 -31 32 -33 -34 -35 -36 -37 -38 38 39 -41 -42 -43 -44 -45 -46 -47 -48
leaf_value=2.2329686957762463e-05 6.0672990674468637e-06 -1.7286439959629546e-05 -1.0773885351002809e-05 -5.9719158569325695e-05 8.1113203090253962e-06 2.5391656837870818e-05 -1.3266585267736708e-05 0.00016626992945892471 -2.425436765744721e-05 -2.4339886711659924e-05 9.0998540352894461e-07 -7.0576355618201986e-06 5.2499104064527639e-06 7.4711550212411019e-06 1.3183310905376752e-07 -1.1322579545772562e-05 3.1173280269102137e-05 -1.0283241479401125e-05 1.5688677130206797e-05 -2.5246018884378746e-05 -1.1808323608454671e-05 -1.6289550224016603e-05 7.6279541740622488e-05 -3.2537039814572629e-06 -5.3596150073347521e-05 7.233925910936309e-06 1.4299901242023223e-06 -2.7111161861018665e-06 2.1803041554802393e-05 3.3270501742724501e-05 -9.8524801069609146e-05 2.0347484338434315e-05 8.7864954805985399e-06 -3.5245780125333791e-05 -1.1704068579268424e-05 5.4439855490382282e-05 -8.9262923749617814e-06 -3.3581996609466552e-05 -5.5383916792008825e-06 1.1697914877706902e-05 3.0083326395352914e-05 -2.7187544685269252e-05 4.580068187974365e-05 -6.4789554702810216e-06 2.4091211479828953e-07 -6.5568419812959928e-05 4.6099713290010953e-05
leaf_weight=300 4127 1198 240 103 185 456 365 162 107 155 1375 3536 1872 600 3389 404 114 4708 920 1363 1059 125 156 294 97 99 479 495 3167 368 122 1658 512 114 289 204 257 104 1294 176 148 96 100 98 145 122 109
leaf_count=300 4127 1198 240 103 185 456 365 162 107 155 1375 3536 1872 600 3389 404 114 4708 920 1363 1059 125 156 294 97 99 479 495 3167 368 122 1658 512 114 289 204 257 104 1294 176 148 96 100 98 145 122 109
internal_value=-5.60663e-06 -0.000332436 -0.000724644 0.000200609 8.45469e-05 0.000244681 -0.0010567 0.000737559 0.000260923 0.000774699 -0.000743373 0.00011801 -0.000207071 -0.000250738 0.000311086 0.000506344 0.000127173 -0.000616314 0.00150115 -0.00155787 -0.0019764 0.0010379 0.00148085 0.00103465 -0.000244203 0.000913559 -0.000952329 0.00114729 0.00146083 0.00134773 0.000730741 0.00102332 -0.000260419 -0.00235281 0.000296515 0.00196239 0.000837155 -0.000580488 -0.000422597 -0.000256644 0.002984 -0.00174466 0.00291193 -0.00217852 -0.00123527 -0.00167965 0.00224905
internal_weight=37566 26093 15034 11059 4373 10956 10661 11473 4437 2756 6562 9939 5408 1142 3892 4531 3503 6083 1614 4099 2422 7036 1017 1214 552 305 1677 6484 3697 3535 2787 2153 634 479 889 389 713 1681 1574 1470 304 481 400 253 385 247 208
internal_count=37566 26093 15034 11059 4373 10956 10661 11473 4437 2756 6562 9939 5408 1142 3892 4531 3503 6083 1614 4099 2422 7036 1017 1214 552 305 1677 6484 3697 3535 2787 2153 634 479 889 389 713 1681 1574 1470 304 481 400 253 385 247 208
is_linear=0
shrinkage=0.00757717


Tree=18
num_leaves=46
num_cat=0
split_feature=33 5 56 46 57 69 61 54 58 29 2 69 27 54 30 38 41 7 56 54 2 67 3 57 30 55 34 61 65 54 29 40 69 61 39 73 5 40 27 33 54 9 30 38 15
split_gain=157.318 94.0712 86.7536 35.3795 28.1627 27.7559 25.8785 25.6008 23.9517 25.0502 32.3519 26.0966 23.8006 23.4096 23.296 22.4504 20.4664 19.701 15.7555 15.7301 25.0618 16.3695 15.5012 17.5875 15.2937 18.5269 13.2567 12.0709 11.6684 17.6843 11.6319 11.6094 10.9925 10.5841 11.2816 10.5289 10.4538 17.3112 9.51429 14.1405 8.99004 9.11007 8.40136 7.42154 4.71089
